{"learner":{"attributes":{"best_iteration":"54","best_score":"0.6896734211944265"},"feature_names":["YEAR","MONTH","PROVINCE","MUNICIPALITY","BARANGAY","PRECIP_PATTERNS","MAX_TEMP","MIN_TEMP","AVE_TEMP","REL_HUM","WIND_SPEED","MAX_TEMP_lag1","MIN_TEMP_lag1","AVE_TEMP_lag1","MAX_TEMP_lag2","MIN_TEMP_lag2","AVE_TEMP_lag2","MAX_TEMP_lag3","MIN_TEMP_lag3","AVE_TEMP_lag3","REL_HUM_lag1","REL_HUM_lag2","PRECIP_PATTERNS_lag1","PRECIP_PATTERNS_lag2","PRECIP_PATTERNS_lag3","WIND_SPEED_lag1","WIND_SPEED_lag2"],"feature_types":["int","int","int","int","int","float","float","float","float","float","float","float","float","float","float","float","float","float","float","float","float","float","float","float","float","float","float"],"gradient_booster":{"model":{"gbtree_model_param":{"num_parallel_tree":"1","num_trees":"1040"},"iteration_indptr":[0,16,32,48,64,80,96,112,128,144,160,176,192,208,224,240,256,272,288,304,320,336,352,368,384,400,416,432,448,464,480,496,512,528,544,560,576,592,608,624,640,656,672,688,704,720,736,752,768,784,800,816,832,848,864,880,896,912,928,944,960,976,992,1008,1024,1040],"tree_info":[0,1,2,3,4,5,6,7,8,9,10,11,12,13,14,15,0,1,2,3,4,5,6,7,8,9,10,11,12,13,14,15,0,1,2,3,4,5,6,7,8,9,10,11,12,13,14,15,0,1,2,3,4,5,6,7,8,9,10,11,12,13,14,15,0,1,2,3,4,5,6,7,8,9,10,11,12,13,14,15,0,1,2,3,4,5,6,7,8,9,10,11,12,13,14,15,0,1,2,3,4,5,6,7,8,9,10,11,12,13,14,15,0,1,2,3,4,5,6,7,8,9,10,11,12,13,14,15,0,1,2,3,4,5,6,7,8,9,10,11,12,13,14,15,0,1,2,3,4,5,6,7,8,9,10,11,12,13,14,15,0,1,2,3,4,5,6,7,8,9,10,11,12,13,14,15,0,1,2,3,4,5,6,7,8,9,10,11,12,13,14,15,0,1,2,3,4,5,6,7,8,9,10,11,12,13,14,15,0,1,2,3,4,5,6,7,8,9,10,11,12,13,14,15,0,1,2,3,4,5,6,7,8,9,10,11,12,13,14,15,0,1,2,3,4,5,6,7,8,9,10,11,12,13,14,15,0,1,2,3,4,5,6,7,8,9,10,11,12,13,14,15,0,1,2,3,4,5,6,7,8,9,10,11,12,13,14,15,0,1,2,3,4,5,6,7,8,9,10,11,12,13,14,15,0,1,2,3,4,5,6,7,8,9,10,11,12,13,14,15,0,1,2,3,4,5,6,7,8,9,10,11,12,13,14,15,0,1,2,3,4,5,6,7,8,9,10,11,12,13,14,15,0,1,2,3,4,5,6,7,8,9,10,11,12,13,14,15,0,1,2,3,4,5,6,7,8,9,10,11,12,13,14,15,0,1,2,3,4,5,6,7,8,9,10,11,12,13,14,15,0,1,2,3,4,5,6,7,8,9,10,11,12,13,14,15,0,1,2,3,4,5,6,7,8,9,10,11,12,13,14,15,0,1,2,3,4,5,6,7,8,9,10,11,12,13,14,15,0,1,2,3,4,5,6,7,8,9,10,11,12,13,14,15,0,1,2,3,4,5,6,7,8,9,10,11,12,13,14,15,0,1,2,3,4,5,6,7,8,9,10,11,12,13,14,15,0,1,2,3,4,5,6,7,8,9,10,11,12,13,14,15,0,1,2,3,4,5,6,7,8,9,10,11,12,13,14,15,0,1,2,3,4,5,6,7,8,9,10,11,12,13,14,15,0,1,2,3,4,5,6,7,8,9,10,11,12,13,14,15,0,1,2,3,4,5,6,7,8,9,10,11,12,13,14,15,0,1,2,3,4,5,6,7,8,9,10,11,12,13,14,15,0,1,2,3,4,5,6,7,8,9,10,11,12,13,14,15,0,1,2,3,4,5,6,7,8,9,10,11,12,13,14,15,0,1,2,3,4,5,6,7,8,9,10,11,12,13,14,15,0,1,2,3,4,5,6,7,8,9,10,11,12,13,14,15,0,1,2,3,4,5,6,7,8,9,10,11,12,13,14,15,0,1,2,3,4,5,6,7,8,9,10,11,12,13,14,15,0,1,2,3,4,5,6,7,8,9,10,11,12,13,14,15,0,1,2,3,4,5,6,7,8,9,10,11,12,13,14,15,0,1,2,3,4,5,6,7,8,9,10,11,12,13,14,15,0,1,2,3,4,5,6,7,8,9,10,11,12,13,14,15,0,1,2,3,4,5,6,7,8,9,10,11,12,13,14,15,0,1,2,3,4,5,6,7,8,9,10,11,12,13,14,15,0,1,2,3,4,5,6,7,8,9,10,11,12,13,14,15,0,1,2,3,4,5,6,7,8,9,10,11,12,13,14,15,0,1,2,3,4,5,6,7,8,9,10,11,12,13,14,15,0,1,2,3,4,5,6,7,8,9,10,11,12,13,14,15,0,1,2,3,4,5,6,7,8,9,10,11,12,13,14,15,0,1,2,3,4,5,6,7,8,9,10,11,12,13,14,15,0,1,2,3,4,5,6,7,8,9,10,11,12,13,14,15,0,1,2,3,4,5,6,7,8,9,10,11,12,13,14,15,0,1,2,3,4,5,6,7,8,9,10,11,12,13,14,15,0,1,2,3,4,5,6,7,8,9,10,11,12,13,14,15,0,1,2,3,4,5,6,7,8,9,10,11,12,13,14,15,0,1,2,3,4,5,6,7,8,9,10,11,12,13,14,15,0,1,2,3,4,5,6,7,8,9,10,11,12,13,14,15,0,1,2,3,4,5,6,7,8,9,10,11,12,13,14,15,0,1,2,3,4,5,6,7,8,9,10,11,12,13,14,15,0,1,2,3,4,5,6,7,8,9,10,11,12,13,14,15],"trees":[{"base_weights":[-4.66184E-2,1.099526E0,-5.166951E-2,5.5209744E-1,3.0769232E-1,1.085234E0,-1.13842174E-1,3.3532935E-1,2.3208192E-1,-4.263323E-2,6.996198E-2,-3.842795E-2,1.183432E-1],"categories":[],"categories_nodes":[],"categories_segments":[],"categories_sizes":[],"default_left":[0,0,0,0,0,0,0,0,0,0,0,0,0],"id":0,"left_children":[1,3,-1,5,-1,7,9,11,-1,-1,-1,-1,-1],"loss_changes":[2.4404737E1,1.2576493E1,0E0,4.223111E0,0E0,5.251712E0,1.833393E0,3.639783E0,0E0,0E0,0E0,0E0,0E0],"parents":[2147483647,0,0,1,1,3,3,5,5,6,6,7,7],"right_children":[2,4,-1,6,-1,8,10,12,-1,-1,-1,-1,-1],"split_conditions":[1.04E2,3.9591032E-1,-5.166951E-2,5.925926E-1,3.0769232E-1,1.2687854E-1,6.9924814E-1,3.2E1,2.3208192E-1,-4.263323E-2,6.996198E-2,-3.842795E-2,1.183432E-1],"split_indices":[4,22,0,9,0,22,6,3,0,0,0,0,0],"split_type":[0,0,0,0,0,0,0,0,0,0,0,0,0],"sum_hessian":[4.3242188E1,1.21875E1,3.1054688E1,1.0546875E1,1.640625E0,5.5078125E0,5.0390625E0,4.21875E0,1.2890625E0,3.984375E0,1.0546875E0,2.578125E0,1.640625E0],"tree_param":{"num_deleted":"0","num_feature":"27","num_nodes":"13","size_leaf_vector":"1"}},{"base_weights":[-3.8526914E-1,2.3529412E-1,-5.1877137E-2,9.640592E-1,-2.6917902E-1,-3.003413E-2,1.7662339E-1,-4.2105265E-2,2.1292776E-2],"categories":[],"categories_nodes":[],"categories_segments":[],"categories_sizes":[],"default_left":[0,0,0,0,0,0,0,0,0],"id":1,"left_children":[1,3,-1,5,7,-1,-1,-1,-1],"loss_changes":[3.777669E0,3.3844647E0,0E0,4.2785177E0,5.1466894E-1,0E0,0E0,0E0,0E0],"parents":[2147483647,0,0,1,1,3,3,4,4],"right_children":[2,4,-1,6,8,-1,-1,-1,-1],"split_conditions":[6E1,6.738113E-2,-5.1877137E-2,3.7817195E-2,6.5789473E-1,-3.003413E-2,1.7662339E-1,-4.2105265E-2,2.1292776E-2],"split_indices":[4,22,0,5,15,0,0,0,0],"split_type":[0,0,0,0,0,0,0,0,0],"sum_hessian":[4.3125E1,7.5E0,3.5625E1,2.6953125E0,4.8046875E0,1.2890625E0,1.40625E0,3.75E0,1.0546875E0],"tree_param":{"num_deleted":"0","num_feature":"27","num_nodes":"9","size_leaf_vector":"1"}},{"base_weights":[-4.528302E-1,-2.507837E-2,-4.9490994E-1,6.996198E-2,-3.976143E-2,-7.476635E-2,-5.1913477E-2,-3.003413E-2,2.1292776E-2],"categories":[],"categories_nodes":[],"categories_segments":[],"categories_sizes":[],"default_left":[0,0,0,0,0,0,0,0,0],"id":2,"left_children":[1,3,5,-1,-1,7,-1,-1,-1],"loss_changes":[7.77606E-1,1.6238409E0,3.6734867E-1,0E0,0E0,2.8094894E-1,0E0,0E0,0E0],"parents":[2147483647,0,0,1,1,2,2,5,5],"right_children":[2,4,6,-1,-1,8,-1,-1,-1],"split_conditions":[2.015E3,8.1E1,9E0,6.996198E-2,-3.976143E-2,5.2E1,-5.1913477E-2,-3.003413E-2,2.1292776E-2],"split_indices":[0,4,3,0,0,4,0,0,0],"split_type":[0,0,0,0,0,0,0,0,0],"sum_hessian":[4.2890625E1,3.984375E0,3.890625E1,1.0546875E0,2.9296875E0,2.34375E0,3.65625E1,1.2890625E0,1.0546875E0],"tree_param":{"num_deleted":"0","num_feature":"27","num_nodes":"9","size_leaf_vector":"1"}},{"base_weights":[-4.9956992E-1,-4.0201005E-2,-5.210175E-2,2.1292776E-2,-2.7376426E-2],"categories":[],"categories_nodes":[],"categories_segments":[],"categories_sizes":[],"default_left":[0,0,0,0,0],"id":3,"left_children":[1,3,-1,-1,-1],"loss_changes":[4.2648888E-1,2.4212317E-1,0E0,0E0,0E0],"parents":[2147483647,0,0,1,1],"right_children":[2,4,-1,-1,-1],"split_conditions":[8E0,4.9624062E-1,-5.210175E-2,2.1292776E-2,-2.7376426E-2],"split_indices":[3,14,0,0,0],"split_type":[0,0,0,0,0],"sum_hessian":[4.4414062E1,2.109375E0,4.2304688E1,1.0546875E0,1.0546875E0],"tree_param":{"num_deleted":"0","num_feature":"27","num_nodes":"5","size_leaf_vector":"1"}},{"base_weights":[-4.7881642E-1,-4.9939477E-1,1.3651878E-2,-2.580645E-1,-5.202001E-2,1.7266188E-2,-4.1207816E-2],"categories":[],"categories_nodes":[],"categories_segments":[],"categories_sizes":[],"default_left":[0,0,0,0,0,0,0],"id":4,"left_children":[1,3,-1,5,-1,-1,-1],"loss_changes":[6.5659046E-1,9.259987E-2,0E0,4.4067216E-1,0E0,0E0,0E0],"parents":[2147483647,0,0,1,1,3,3],"right_children":[2,4,-1,6,-1,-1,-1],"split_conditions":[9.0225565E-1,2.015E3,1.3651878E-2,6.6E1,-5.202001E-2,1.7266188E-2,-4.1207816E-2],"split_indices":[6,0,0,4,0,0,0],"split_type":[0,0,0,0,0,0,0],"sum_hessian":[4.546875E1,4.4179688E1,1.2890625E0,4.5703125E0,3.9609375E1,1.171875E0,3.3984375E0],"tree_param":{"num_deleted":"0","num_feature":"27","num_nodes":"7","size_leaf_vector":"1"}},{"base_weights":[-4.5729658E-1,1.1133201E-1,-4.9811593E-1,6.996198E-2,-3.478261E-2,-2.6373628E-1,-5.1960588E-2,2.1292776E-2,-4.182125E-2],"categories":[],"categories_nodes":[],"categories_segments":[],"categories_sizes":[],"default_left":[0,0,0,0,0,0,0,0,0],"id":5,"left_children":[1,3,5,-1,-1,7,-1,-1,-1],"loss_changes":[1.1340446E0,1.3048218E0,8.225918E-2,0E0,0E0,5.0783825E-1,0E0,0E0,0E0],"parents":[2147483647,0,0,1,1,2,2,5,5],"right_children":[2,4,6,-1,-1,8,-1,-1,-1],"split_conditions":[9E0,2.017E3,2.015E3,6.996198E-2,-3.478261E-2,6.6E1,-5.1960588E-2,2.1292776E-2,-4.182125E-2],"split_indices":[3,0,0,0,0,4,0,0,0],"split_type":[0,0,0,0,0,0,0,0,0],"sum_hessian":[4.546875E1,2.9296875E0,4.2539062E1,1.0546875E0,1.875E0,4.6875E0,3.7851562E1,1.0546875E0,3.6328125E0],"tree_param":{"num_deleted":"0","num_feature":"27","num_nodes":"9","size_leaf_vector":"1"}},{"base_weights":[-4.9885824E-1,-2.3277183E-1,-5.2012384E-2,2.1292776E-2,-4.015444E-2],"categories":[],"categories_nodes":[],"categories_segments":[],"categories_sizes":[],"default_left":[0,0,0,0,0],"id":6,"left_children":[1,3,-1,-1,-1],"loss_changes":[1.3059998E-1,4.69249E-1,0E0,0E0,0E0],"parents":[2147483647,0,0,1,1],"right_children":[2,4,-1,-1,-1],"split_conditions":[2E0,4.7E1,-5.2012384E-2,2.1292776E-2,-4.015444E-2],"split_indices":[1,4,0,0,0],"split_type":[0,0,0,0,0],"sum_hessian":[4.3476562E1,4.1015625E0,3.9375E1,1.0546875E0,3.046875E0],"tree_param":{"num_deleted":"0","num_feature":"27","num_nodes":"5","size_leaf_vector":"1"}},{"base_weights":[-4.9956992E-1,2.1292776E-2,-5.2131034E-2],"categories":[],"categories_nodes":[],"categories_segments":[],"categories_sizes":[],"default_left":[0,0,0],"id":7,"left_children":[1,-1,-1],"loss_changes":[8.144636E-1,0E0,0E0],"parents":[2147483647,0,0],"right_children":[2,-1,-1],"split_conditions":[7E0,2.1292776E-2,-5.2131034E-2],"split_indices":[3,0,0],"split_type":[0,0,0],"sum_hessian":[4.4414062E1,1.0546875E0,4.3359375E1],"tree_param":{"num_deleted":"0","num_feature":"27","num_nodes":"3","size_leaf_vector":"1"}},{"base_weights":[-3.902105E-1,5.553471E-1,-4.7370356E-1,1.447099E-1,-3.478261E-2,-8.791209E-2,-5.192228E-2,6.996198E-2,-4.182125E-2],"categories":[],"categories_nodes":[],"categories_segments":[],"categories_sizes":[],"default_left":[0,0,0,0,0,0,0,0,0],"id":8,"left_children":[1,3,5,-1,-1,7,-1,-1,-1],"loss_changes":[3.8668995E0,3.857101E0,7.004194E-1,0E0,0E0,1.7720342E0,0E0,0E0,0E0],"parents":[2147483647,0,0,1,1,2,2,5,5],"right_children":[2,4,6,-1,-1,8,-1,-1,-1],"split_conditions":[1E1,5.06383E-1,3E1,1.447099E-1,-3.478261E-2,5E0,-5.192228E-2,6.996198E-2,-4.182125E-2],"split_indices":[3,8,3,0,0,1,0,0,0],"split_type":[0,0,0,0,0,0,0,0,0],"sum_hessian":[4.4648438E1,3.1640625E0,4.1484375E1,1.2890625E0,1.875E0,4.6875E0,3.6796875E1,1.0546875E0,3.6328125E0],"tree_param":{"num_deleted":"0","num_feature":"27","num_nodes":"9","size_leaf_vector":"1"}},{"base_weights":[-5.217391E-1],"categories":[],"categories_nodes":[],"categories_segments":[],"categories_sizes":[],"default_left":[0],"id":9,"left_children":[-1],"loss_changes":[0E0],"parents":[2147483647],"right_children":[-1],"split_conditions":[-5.2173913E-2],"split_indices":[0],"split_type":[0],"sum_hessian":[4.5E1],"tree_param":{"num_deleted":"0","num_feature":"27","num_nodes":"1","size_leaf_vector":"1"}},{"base_weights":[-3.292071E-1,4.6280992E-1,-4.7022188E-1,1.8356942E-1,-2.6917902E-1,-1.509434E-1,-5.178814E-2,2.1292776E-2,-4.2105265E-2,-4.3758765E-2,6.996198E-2],"categories":[],"categories_nodes":[],"categories_segments":[],"categories_sizes":[],"default_left":[0,0,0,0,0,0,0,0,0,0,0],"id":10,"left_children":[1,3,5,-1,7,9,-1,-1,-1,-1,-1],"loss_changes":[5.4337134E0,8.093959E0,5.326357E-1,0E0,5.1466894E-1,1.9213799E0,0E0,0E0,0E0,0E0,0E0],"parents":[2147483647,0,0,1,1,2,2,4,4,5,5],"right_children":[2,4,6,-1,8,10,-1,-1,-1,-1,-1],"split_conditions":[2.5E1,2.6666668E-1,3.9E1,1.8356942E-1,2.6E1,8.6E1,-5.178814E-2,2.1292776E-2,-4.2105265E-2,-4.3758765E-2,6.996198E-2],"split_indices":[3,10,3,0,4,4,0,0,0,0,0],"split_type":[0,0,0,0,0,0,0,0,0,0,0],"sum_hessian":[4.5703125E1,6.5625E0,3.9140625E1,1.7578125E0,4.8046875E0,5.625E0,3.3515625E1,1.0546875E0,3.75E0,4.5703125E0,1.0546875E0],"tree_param":{"num_deleted":"0","num_feature":"27","num_nodes":"11","size_leaf_vector":"1"}},{"base_weights":[-4.979253E-1,-5.199293E-2,-1.9377163E-1,-3.792325E-2,2.1292776E-2],"categories":[],"categories_nodes":[],"categories_segments":[],"categories_sizes":[],"default_left":[0,0,0,0,0],"id":11,"left_children":[1,-1,3,-1,-1],"loss_changes":[1.8907356E-1,0E0,4.2134833E-1,0E0,0E0],"parents":[2147483647,0,0,2,2],"right_children":[2,-1,4,-1,-1],"split_conditions":[2.023E3,-5.199293E-2,6.9924814E-1,-3.792325E-2,2.1292776E-2],"split_indices":[0,0,6,0,0],"split_type":[0,0,0,0,0],"sum_hessian":[4.2304688E1,3.8789062E1,3.515625E0,2.4609375E0,1.0546875E0],"tree_param":{"num_deleted":"0","num_feature":"27","num_nodes":"5","size_leaf_vector":"1"}},{"base_weights":[4.9396345E-1,3.3775444E0,-5.1782876E-2,4.8758465E-1,4.07947E0,1.18631184E-1,-3.1168832E-2,1.8014528E-1,4.5330443E0,4.9604222E-1,1.447099E-1],"categories":[],"categories_nodes":[],"categories_segments":[],"categories_sizes":[],"default_left":[0,0,0,0,0,0,0,0,0,0,0],"id":12,"left_children":[1,3,-1,5,7,-1,-1,-1,9,-1,-1],"loss_changes":[1.3390646E2,2.2147339E1,0E0,2.3026023E0,1.5852356E0,0E0,0E0,0E0,2.3320312E0,0E0,0E0],"parents":[2147483647,0,0,1,1,3,3,4,4,8,8],"right_children":[2,4,-1,6,8,-1,-1,-1,10,-1,-1],"split_conditions":[3.4E1,1.2E1,-5.1782876E-2,1.5496428E-1,6.5413535E-1,1.18631184E-1,-3.1168832E-2,1.8014528E-1,7.0212764E-1,4.9604222E-1,1.447099E-1],"split_indices":[3,3,0,23,6,0,0,0,16,0,0],"split_type":[0,0,0,0,0,0,0,0,0,0,0],"sum_hessian":[4.4296875E1,1.08984375E1,3.3398438E1,2.4609375E0,8.4375E0,1.0546875E0,1.40625E0,2.2265625E0,6.2109375E0,4.921875E0,1.2890625E0],"tree_param":{"num_deleted":"0","num_feature":"27","num_nodes":"11","size_leaf_vector":"1"}},{"base_weights":[-3.607731E-1,6.2722735E-2,-4.878275E-1,-3.5041937E-1,1.0131004E0,-1.6510318E-1,-5.158649E-2,2.1292776E-2,-4.6055436E-2,1.038961E-2,1.5539569E-1,-3.6180906E-2,2.1292776E-2],"categories":[],"categories_nodes":[],"categories_segments":[],"categories_sizes":[],"default_left":[0,0,0,0,0,0,0,0,0,0,0,0,0],"id":13,"left_children":[1,3,5,7,9,11,-1,-1,-1,-1,-1,-1,-1],"loss_changes":[2.3796105E0,4.6587243E0,2.1971607E-1,6.181699E-1,1.5980887E0,3.8668266E-1,0E0,0E0,0E0,0E0,0E0,0E0,0E0],"parents":[2147483647,0,0,1,1,2,2,3,3,4,4,5,5],"right_children":[2,4,6,8,10,12,-1,-1,-1,-1,-1,-1,-1],"split_conditions":[8.5E1,3.2889876E-1,2.015E3,2.015E3,4.5E1,3.960335E-1,-5.158649E-2,2.1292776E-2,-4.6055436E-2,1.038961E-2,1.5539569E-1,-3.6180906E-2,2.1292776E-2],"split_indices":[4,5,0,0,4,5,0,0,0,0,0,0,0],"split_type":[0,0,0,0,0,0,0,0,0,0,0,0,0],"sum_hessian":[4.265625E1,9.9609375E0,3.2695312E1,7.3828125E0,2.578125E0,3.1640625E0,2.953125E1,1.0546875E0,6.328125E0,1.40625E0,1.171875E0,2.109375E0,1.0546875E0],"tree_param":{"num_deleted":"0","num_feature":"27","num_nodes":"13","size_leaf_vector":"1"}},{"base_weights":[-4.9782923E-1,-4.0201005E-2,-5.2034993E-2,-2.7376426E-2,2.1292776E-2],"categories":[],"categories_nodes":[],"categories_segments":[],"categories_sizes":[],"default_left":[0,0,0,0,0],"id":14,"left_children":[1,3,-1,-1,-1],"loss_changes":[4.2417717E-1,2.4212317E-1,0E0,0E0,0E0],"parents":[2147483647,0,0,1,1],"right_children":[2,4,-1,-1,-1],"split_conditions":[8E0,1.5348607E-1,-5.2034993E-2,-2.7376426E-2,2.1292776E-2],"split_indices":[3,5,0,0,0],"split_type":[0,0,0,0,0],"sum_hessian":[4.21875E1,2.109375E0,4.0078125E1,1.0546875E0,1.0546875E0],"tree_param":{"num_deleted":"0","num_feature":"27","num_nodes":"5","size_leaf_vector":"1"}},{"base_weights":[5.6292152E0,-4.1051313E-1,7.729132E-1,1.3651878E-2,-4.8569437E-2],"categories":[],"categories_nodes":[],"categories_segments":[],"categories_sizes":[],"default_left":[0,0,0,0,0],"id":15,"left_children":[1,3,-1,-1,-1],"loss_changes":[5.702384E2,5.797453E-1,0E0,0E0,0E0],"parents":[2147483647,0,0,1,1],"right_children":[2,4,-1,-1,-1],"split_conditions":[1.05E2,1.5274698E-2,7.729132E-1,1.3651878E-2,-4.8569437E-2],"split_indices":[4,24,0,0,0],"split_type":[0,0,0,0,0],"sum_hessian":[4.3710938E1,1.1484375E1,3.2226562E1,1.2890625E0,1.01953125E1],"tree_param":{"num_deleted":"0","num_feature":"27","num_nodes":"5","size_leaf_vector":"1"}},{"base_weights":[-5.498625E-2,9.6327174E-1,-4.7904027E-1,3.867428E-1,2.6254627E-1,-5.0951373E-2,-2.5844875E-1,1.2791952E0,-1.8214907E-1,1.8811217E-2,-4.1247364E-2,3.7335139E-3,2.1104293E-1,-4.4700522E-2,7.093063E-2],"categories":[],"categories_nodes":[],"categories_segments":[],"categories_sizes":[],"default_left":[0,0,0,0,0,0,0,0,0,0,0,0,0,0,0],"id":16,"left_children":[1,3,5,7,-1,-1,9,11,13,-1,-1,-1,-1,-1,-1],"loss_changes":[1.8123976E1,1.0827824E1,6.6931725E-2,5.487103E0,0E0,0E0,4.6384326E-1,4.2085667E0,2.0159369E0,0E0,0E0,0E0,0E0,0E0,0E0],"parents":[2147483647,0,0,1,1,2,2,3,3,6,6,7,7,8,8],"right_children":[2,4,6,8,-1,-1,10,12,14,-1,-1,-1,-1,-1,-1],"split_conditions":[3.4E1,3.9788124E-1,3.9591032E-1,9.9285536E-2,2.6254627E-1,-5.0951373E-2,4.345898E-1,3.917221E-2,5.385563E-1,1.8811217E-2,-4.1247364E-2,3.7335139E-3,2.1104293E-1,-4.4700522E-2,7.093063E-2],"split_indices":[3,22,24,24,0,0,24,23,24,0,0,0,0,0,0],"split_type":[0,0,0,0,0,0,0,0,0,0,0,0,0,0,0],"sum_hessian":[3.9904766E1,1.135854E1,2.8546225E1,9.348644E0,2.0098956E0,2.3930588E1,4.6156373E0,3.1533053E0,6.195339E0,1.1269592E0,3.488678E0,1.6833313E0,1.4699739E0,5.1606493E0,1.0346897E0],"tree_param":{"num_deleted":"0","num_feature":"27","num_nodes":"15","size_leaf_vector":"1"}},{"base_weights":[-3.9660394E-1,1.3973348E-1,-5.151413E-2,4.3746525E-1,-3.8130317E-2,-3.2210898E-2,7.920845E-1,9.677774E-3,1.1201351E-1],"categories":[],"categories_nodes":[],"categories_segments":[],"categories_sizes":[],"default_left":[0,0,0,0,0,0,0,0,0],"id":17,"left_children":[1,3,-1,5,-1,-1,7,-1,-1],"loss_changes":[2.680976E0,1.4411473E0,0E0,1.7886735E0,0E0,0E0,8.4283304E-1,0E0,0E0],"parents":[2147483647,0,0,1,1,3,3,6,6],"right_children":[2,4,-1,6,-1,-1,8,-1,-1],"split_conditions":[5.9E1,2.1088938E-1,-5.151413E-2,5.263158E-1,-3.8130317E-2,-3.2210898E-2,4.814815E-1,9.677774E-3,1.1201351E-1],"split_indices":[4,22,0,7,0,0,21,0,0],"split_type":[0,0,0,0,0,0,0,0,0],"sum_hessian":[4.0037376E1,7.2147055E0,3.282267E1,4.693265E0,2.5214403E0,1.5229245E0,3.1703405E0,1.4314262E0,1.7389145E0],"tree_param":{"num_deleted":"0","num_feature":"27","num_nodes":"9","size_leaf_vector":"1"}},{"base_weights":[-4.4899142E-1,-6.0900375E-2,-4.9137256E-1,5.2956372E-2,-3.980356E-2,-7.5870246E-2,-5.1625725E-2,-2.995648E-2,2.0760356E-2],"categories":[],"categories_nodes":[],"categories_segments":[],"categories_sizes":[],"default_left":[0,0,0,0,0,0,0,0,0],"id":18,"left_children":[1,3,5,-1,-1,7,-1,-1,-1],"loss_changes":[6.7607594E-1,1.2792622E0,3.594904E-1,0E0,0E0,2.7468067E-1,0E0,0E0,0E0],"parents":[2147483647,0,0,1,1,2,2,5,5],"right_children":[2,4,6,-1,-1,8,-1,-1,-1],"split_conditions":[2.015E3,6.6E1,9E0,5.2956372E-2,-3.980356E-2,6.5413535E-1,-5.1625725E-2,-2.995648E-2,2.0760356E-2],"split_indices":[0,4,3,0,0,17,0,0,0],"split_type":[0,0,0,0,0,0,0,0,0],"sum_hessian":[4.1923912E1,4.367445E0,3.7556465E1,1.3798964E0,2.9875484E0,2.3509665E0,3.52055E1,1.2823086E0,1.0686578E0],"tree_param":{"num_deleted":"0","num_feature":"27","num_nodes":"9","size_leaf_vector":"1"}},{"base_weights":[-4.942616E-1,-2.1360451E-3,-5.1753193E-2],"categories":[],"categories_nodes":[],"categories_segments":[],"categories_sizes":[],"default_left":[0,0,0],"id":19,"left_children":[1,-1,-1],"loss_changes":[4.4686985E-1,0E0,0E0],"parents":[2147483647,0,0],"right_children":[2,-1,-1],"split_conditions":[8E0,-2.1360451E-3,-5.1753193E-2],"split_indices":[3,0,0],"split_type":[0,0,0],"sum_hessian":[4.061224E1,1.9946556E0,3.8617584E1],"tree_param":{"num_deleted":"0","num_feature":"27","num_nodes":"3","size_leaf_vector":"1"}},{"base_weights":[-4.719086E-1,-4.941641E-1,1.4578222E-2,-2.3412524E-1,-5.167621E-2,2.0648105E-2,-4.006679E-2],"categories":[],"categories_nodes":[],"categories_segments":[],"categories_sizes":[],"default_left":[0,0,0,0,0,0,0],"id":20,"left_children":[1,3,-1,5,-1,-1,-1],"loss_changes":[6.599083E-1,1.2290478E-1,0E0,4.603987E-1,0E0,0E0,0E0],"parents":[2147483647,0,0,1,1,3,3],"right_children":[2,4,-1,6,-1,-1,-1],"split_conditions":[8.947368E-1,2.015E3,1.4578222E-2,8.1E1,-5.167621E-2,2.0648105E-2,-4.006679E-2],"split_indices":[6,0,0,4,0,0,0],"split_type":[0,0,0,0,0,0,0],"sum_hessian":[4.1763298E1,4.0503914E1,1.2593815E0,4.146766E0,3.6357147E1,1.0716894E0,3.0750768E0],"tree_param":{"num_deleted":"0","num_feature":"27","num_nodes":"7","size_leaf_vector":"1"}},{"base_weights":[-4.71822E-1,1.4473006E-1,-5.17688E-2,-3.323949E-2,6.828647E-2],"categories":[],"categories_nodes":[],"categories_segments":[],"categories_sizes":[],"default_left":[0,0,0,0,0],"id":21,"left_children":[1,3,-1,-1,-1],"loss_changes":[1.2805729E0,1.1855915E0,0E0,0E0,0E0],"parents":[2147483647,0,0,1,1],"right_children":[2,4,-1,-1,-1],"split_conditions":[9E0,6.212766E-1,-5.17688E-2,-3.323949E-2,6.828647E-2],"split_indices":[3,19,0,0,0],"split_type":[0,0,0,0,0],"sum_hessian":[4.163436E1,2.7335262E0,3.8900833E1,1.6515429E0,1.0819833E0],"tree_param":{"num_deleted":"0","num_feature":"27","num_nodes":"5","size_leaf_vector":"1"}},{"base_weights":[-4.9431542E-1,-2.8186524E-1,-5.163756E-2,2.2861103E-2,-4.2806834E-2],"categories":[],"categories_nodes":[],"categories_segments":[],"categories_sizes":[],"default_left":[0,0,0,0,0],"id":22,"left_children":[1,3,-1,-1,-1],"loss_changes":[4.9621582E-2,5.5456316E-1,0E0,0E0,0E0],"parents":[2147483647,0,0,1,1],"right_children":[2,4,-1,-1,-1],"split_conditions":[4.7E1,3.7037036E-1,-5.163756E-2,2.2861103E-2,-4.2806834E-2],"split_indices":[4,20,0,0,0],"split_type":[0,0,0,0,0],"sum_hessian":[4.06434E1,5.1192875E0,3.552411E1,1.0142663E0,4.1050215E0],"tree_param":{"num_deleted":"0","num_feature":"27","num_nodes":"5","size_leaf_vector":"1"}},{"base_weights":[-4.95631E-1,-5.1844038E-2,2.288379E-2],"categories":[],"categories_nodes":[],"categories_segments":[],"categories_sizes":[],"default_left":[0,0,0],"id":23,"left_children":[1,-1,-1],"loss_changes":[8.332014E-1,0E0,0E0],"parents":[2147483647,0,0],"right_children":[2,-1,-1],"split_conditions":[8.461444E-1,-5.1844038E-2,2.288379E-2],"split_indices":[23,0,0],"split_type":[0,0,0],"sum_hessian":[4.224222E1,4.1228558E1,1.0136648E0],"tree_param":{"num_deleted":"0","num_feature":"27","num_nodes":"3","size_leaf_vector":"1"}},{"base_weights":[-3.8249663E-1,7.3624444E-1,-4.932545E-1,1.401006E-1,-3.192542E-2,-1.0173175E-1,-5.1692434E-2,-3.201306E-2,2.1468176E-2],"categories":[],"categories_nodes":[],"categories_segments":[],"categories_sizes":[],"default_left":[0,0,0,0,0,0,0,0,0],"id":24,"left_children":[1,3,5,-1,-1,7,-1,-1,-1],"loss_changes":[5.797005E0,3.5006433E0,3.2275295E-1,0E0,0E0,3.143228E-1,0E0,0E0,0E0],"parents":[2147483647,0,0,1,1,2,2,5,5],"right_children":[2,4,6,-1,-1,8,-1,-1,-1],"split_conditions":[1E1,5.6390977E-1,2.2E1,1.401006E-1,-3.192542E-2,7.9E1,-5.1692434E-2,-3.201306E-2,2.1468176E-2],"split_indices":[3,6,3,0,0,4,0,0,0],"split_type":[0,0,0,0,0,0,0,0,0],"sum_hessian":[4.285342E1,3.3516636E0,3.950176E1,1.8556317E0,1.4960319E0,2.5539968E0,3.694776E1,1.5040827E0,1.049914E0],"tree_param":{"num_deleted":"0","num_feature":"27","num_nodes":"9","size_leaf_vector":"1"}},{"base_weights":[-5.1867783E-1],"categories":[],"categories_nodes":[],"categories_segments":[],"categories_sizes":[],"default_left":[0],"id":25,"left_children":[-1],"loss_changes":[0E0],"parents":[2147483647],"right_children":[-1],"split_conditions":[-5.1867783E-2],"split_indices":[0],"split_type":[0],"sum_hessian":[4.2177673E1],"tree_param":{"num_deleted":"0","num_feature":"27","num_nodes":"1","size_leaf_vector":"1"}},{"base_weights":[-3.033998E-1,5.052959E-1,-4.5979002E-1,1.9112514E-1,-2.5772008E-1,-1.446379E-1,-5.1301565E-2,2.2315545E-2,-4.1544884E-2,-4.35228E-2,7.181724E-2],"categories":[],"categories_nodes":[],"categories_segments":[],"categories_sizes":[],"default_left":[0,0,0,0,0,0,0,0,0,0,0],"id":26,"left_children":[1,3,5,-1,7,9,-1,-1,-1,-1,-1],"loss_changes":[5.515107E0,8.264992E0,5.2170134E-1,0E0,5.1576054E-1,1.9486759E0,0E0,0E0,0E0,0E0,0E0],"parents":[2147483647,0,0,1,1,2,2,4,4,5,5],"right_children":[2,4,6,-1,8,10,-1,-1,-1,-1,-1],"split_conditions":[2.5E1,2.6666668E-1,3.9E1,1.9112514E-1,3.917221E-2,8.6E1,-5.1301565E-2,2.2315545E-2,-4.1544884E-2,-4.35228E-2,7.181724E-2],"split_indices":[3,10,3,0,23,4,0,0,0,0,0],"split_type":[0,0,0,0,0,0,0,0,0,0,0],"sum_hessian":[4.0770294E1,6.2452154E0,3.4525078E1,1.6675941E0,4.5776215E0,5.5255275E0,2.8999552E1,1.0281732E0,3.5494483E0,4.5041294E0,1.0213984E0],"tree_param":{"num_deleted":"0","num_feature":"27","num_nodes":"11","size_leaf_vector":"1"}},{"base_weights":[-4.7257525E-1,-5.1778436E-2,9.266754E-2,-3.4888837E-2,6.479926E-2],"categories":[],"categories_nodes":[],"categories_segments":[],"categories_sizes":[],"default_left":[0,0,0,0,0],"id":27,"left_children":[1,-1,3,-1,-1],"loss_changes":[1.1538687E0,0E0,1.2199433E0,0E0,0E0],"parents":[2147483647,0,0,2,2],"right_children":[2,-1,4,-1,-1],"split_conditions":[2.023E3,-5.1778436E-2,2E0,-3.4888837E-2,6.479926E-2],"split_indices":[0,0,2,0,0],"split_type":[0,0,0,0,0],"sum_hessian":[4.2276253E1,3.922308E1,3.0531716E0,1.90789E0,1.1452817E0],"tree_param":{"num_deleted":"0","num_feature":"27","num_nodes":"5","size_leaf_vector":"1"}},{"base_weights":[3.4713683E-1,2.1305416E0,-5.136166E-2,2.4470534E0,-3.287493E-2,4.5242038E-1,2.8873765E0,1.0163462E-1,-3.0362112E-2,3.2390652E0,4.6777986E-2,1.5892564E-1,3.629348E-1],"categories":[],"categories_nodes":[],"categories_segments":[],"categories_sizes":[],"default_left":[0,0,0,0,0,0,0,0,0,0,0,0,0],"id":28,"left_children":[1,3,-1,5,-1,7,9,-1,-1,11,-1,-1,-1],"loss_changes":[6.9824776E1,1.230085E1,0E0,1.0290298E1,0E0,1.8321443E0,7.5305634E0,0E0,0E0,9.944153E-2,0E0,0E0,0E0],"parents":[2147483647,0,0,1,1,3,3,5,5,6,6,9,9],"right_children":[2,4,-1,6,-1,8,10,-1,-1,12,-1,-1,-1],"split_conditions":[3.4E1,7.017544E-1,-5.136166E-2,5.9398496E-1,-3.287493E-2,1E0,3.656073E-1,1.0163462E-1,-3.0362112E-2,5.4385966E-1,4.6777986E-2,1.5892564E-1,3.629348E-1],"split_indices":[3,7,0,6,0,2,22,0,0,7,0,0,0],"split_type":[0,0,0,0,0,0,0,0,0,0,0,0,0],"sum_hessian":[4.3773464E1,1.3769362E1,3.0004103E1,1.2203715E1,1.5656466E0,2.5734854E0,9.63023E0,1.2768173E0,1.296668E0,8.112411E0,1.5178193E0,2.5222747E0,5.590136E0],"tree_param":{"num_deleted":"0","num_feature":"27","num_nodes":"13","size_leaf_vector":"1"}},{"base_weights":[-3.5805523E-1,7.93787E-2,-4.855759E-1,-3.2936373E-1,8.075357E-1,-1.8929295E-1,-5.1329166E-2,-4.5090795E-2,2.2427952E-2,2.8130903E-3,1.3604584E-1,-3.779147E-2,2.285528E-2],"categories":[],"categories_nodes":[],"categories_segments":[],"categories_sizes":[],"default_left":[0,0,0,0,0,0,0,0,0,0,0,0,0],"id":29,"left_children":[1,3,5,7,9,11,-1,-1,-1,-1,-1,-1,-1],"loss_changes":[2.4616451E0,3.4400175E0,1.8018293E-1,6.085537E-1,1.7388933E0,4.3894303E-1,0E0,0E0,0E0,0E0,0E0,0E0,0E0],"parents":[2147483647,0,0,1,1,2,2,3,3,4,4,5,5],"right_children":[2,4,6,8,10,12,-1,-1,-1,-1,-1,-1,-1],"split_conditions":[8.5E1,3.1411678E-1,2.015E3,6.851064E-1,4.3E1,6.111111E-1,-5.1329166E-2,-4.5090795E-2,2.2427952E-2,2.8130903E-3,1.3604584E-1,-3.779147E-2,2.285528E-2],"split_indices":[4,23,0,8,4,21,0,0,0,0,0,0,0],"split_type":[0,0,0,0,0,0,0,0,0,0,0,0,0],"sum_hessian":[4.243884E1,9.664444E0,3.2774395E1,6.5406184E0,3.1238253E0,3.4733946E0,2.9301E1,5.515364E0,1.0252544E0,1.7325225E0,1.3913027E0,2.458952E0,1.0144428E0],"tree_param":{"num_deleted":"0","num_feature":"27","num_nodes":"13","size_leaf_vector":"1"}},{"base_weights":[-4.952829E-1,2.4287303E-3,-5.1801987E-2],"categories":[],"categories_nodes":[],"categories_segments":[],"categories_sizes":[],"default_left":[0,0,0],"id":30,"left_children":[1,-1,-1],"loss_changes":[5.1834774E-1,0E0,0E0],"parents":[2147483647,0,0],"right_children":[2,-1,-1],"split_conditions":[8E0,2.4287303E-3,-5.1801987E-2],"split_indices":[3,0,0],"split_type":[0,0,0],"sum_hessian":[4.181272E1,1.7501951E0,4.0062523E1],"tree_param":{"num_deleted":"0","num_feature":"27","num_nodes":"3","size_leaf_vector":"1"}},{"base_weights":[3.063878E0,3.4277318E0,2.4501333E0,6.482649E-2,3.4836414E-1,2.5603397E0,1.0609084E0,7.083289E-2,2.602908E-1,3.4066164E-3,1.7772827E-1],"categories":[],"categories_nodes":[],"categories_segments":[],"categories_sizes":[],"default_left":[0,0,0,0,0,0,0,0,0,0,0],"id":31,"left_children":[1,3,5,-1,-1,7,9,-1,-1,-1,-1],"loss_changes":[8.725159E0,4.833191E0,2.1899414E0,0E0,0E0,4.412079E-1,2.9281116E0,0E0,0E0,0E0,0E0],"parents":[2147483647,0,0,1,1,2,2,5,5,6,6],"right_children":[2,4,6,-1,-1,8,10,-1,-1,-1,-1],"split_conditions":[2E0,3.508772E-1,6.8421054E-1,6.482649E-2,3.4836414E-1,4.2857143E-1,3E0,7.083289E-2,2.602908E-1,3.4066164E-3,1.7772827E-1],"split_indices":[2,7,18,0,0,11,2,0,0,0,0],"split_type":[0,0,0,0,0,0,0,0,0,0,0],"sum_hessian":[7.567965E1,4.4633877E1,3.104577E1,1.1284723E0,4.35054E1,2.7982906E1,3.062865E0,1.0250733E0,2.6957832E1,1.6891749E0,1.3736901E0],"tree_param":{"num_deleted":"0","num_feature":"27","num_nodes":"11","size_leaf_vector":"1"}},{"base_weights":[-4.775245E-2,9.988442E-1,-5.115363E-2,5.290307E-1,2.1578043E0,7.975379E-1,-3.644378E-2,2.71023E-1,6.0382605E-2,-9.651124E-2,1.1783564E0,-3.130113E-2,2.0021437E-2,3.4488675E-1,1.8674548E-1,-3.3542447E-2,9.6660875E-2],"categories":[],"categories_nodes":[],"categories_segments":[],"categories_sizes":[],"default_left":[0,0,0,0,0,0,0,0,0,0,0,0,0,0,0,0,0],"id":32,"left_children":[1,3,-1,5,7,9,-1,-1,-1,11,13,-1,-1,15,-1,-1,-1],"loss_changes":[2.1080378E1,6.1280413E0,0E0,2.8875525E0,1.3906345E0,3.0543876E0,0E0,0E0,0E0,2.8778896E-1,2.8782501E0,0E0,0E0,2.0169885E0,0E0,0E0,0E0],"parents":[2147483647,0,0,1,1,3,3,4,4,5,5,9,9,10,10,13,13],"right_children":[2,4,-1,6,8,10,-1,-1,-1,12,14,-1,-1,16,-1,-1,-1],"split_conditions":[3.6E1,3.9788124E-1,-5.115363E-2,6.111111E-1,6E-1,3.917221E-2,-3.644378E-2,2.71023E-1,6.0382605E-2,5E1,2.6E1,-3.130113E-2,2.0021437E-2,6.3829786E-1,1.8674548E-1,-3.3542447E-2,9.6660875E-2],"split_indices":[3,23,0,21,26,23,0,0,0,4,3,0,0,8,0,0,0],"split_type":[0,0,0,0,0,0,0,0,0,0,0,0,0,0,0,0,0],"sum_hessian":[4.1376724E1,1.2351057E1,2.902567E1,9.824798E0,2.526259E0,7.637059E0,2.1877387E0,1.3147999E0,1.2114589E0,2.5042915E0,5.1327677E0,1.4161445E0,1.088147E0,3.0021431E0,2.1306245E0,1.653411E0,1.3487321E0],"tree_param":{"num_deleted":"0","num_feature":"27","num_nodes":"17","size_leaf_vector":"1"}},{"base_weights":[-3.447348E-1,2.275522E-1,-5.123193E-2,5.788394E-1,-4.021805E-2,9.0025246E-2,1.616575E-1,-3.8478E-2,6.1358966E-2],"categories":[],"categories_nodes":[],"categories_segments":[],"categories_sizes":[],"default_left":[0,0,0,0,0,0,0,0,0],"id":33,"left_children":[1,3,-1,5,-1,7,-1,-1,-1],"loss_changes":[4.0152435E0,2.4228528E0,0E0,3.2860556E0,0E0,1.6425581E0,0E0,0E0,0E0],"parents":[2147483647,0,0,1,1,3,3,5,5],"right_children":[2,4,-1,6,-1,8,-1,-1,-1],"split_conditions":[7.1E1,2.1088938E-1,-5.123193E-2,2.1088938E-1,-4.021805E-2,4.9E1,1.616575E-1,-3.8478E-2,6.1358966E-2],"split_indices":[4,22,0,23,0,4,0,0,0],"split_type":[0,0,0,0,0,0,0,0,0],"sum_hessian":[3.965071E1,8.900027E0,3.0750685E1,5.7649508E0,3.1350768E0,4.657729E0,1.1072217E0,2.5816145E0,2.0761144E0],"tree_param":{"num_deleted":"0","num_feature":"27","num_nodes":"9","size_leaf_vector":"1"}},{"base_weights":[-4.6472517E-1,-1.0141528E-1,-5.137333E-2,-4.2005952E-2,6.7942865E-2],"categories":[],"categories_nodes":[],"categories_segments":[],"categories_sizes":[],"default_left":[0,0,0,0,0],"id":34,"left_children":[1,3,-1,-1,-1],"loss_changes":[6.427679E-1,1.7495639E0,0E0,0E0,0E0],"parents":[2147483647,0,0,1,1],"right_children":[2,4,-1,-1,-1],"split_conditions":[2.4E1,7.017544E-1,-5.137333E-2,-4.2005952E-2,6.7942865E-2],"split_indices":[3,12,0,0,0],"split_type":[0,0,0,0,0],"sum_hessian":[3.802633E1,4.8846316E0,3.3141697E1,3.797148E0,1.0874836E0],"tree_param":{"num_deleted":"0","num_feature":"27","num_nodes":"5","size_leaf_vector":"1"}},{"base_weights":[-5.164304E-1],"categories":[],"categories_nodes":[],"categories_segments":[],"categories_sizes":[],"default_left":[0],"id":35,"left_children":[-1],"loss_changes":[0E0],"parents":[2147483647],"right_children":[-1],"split_conditions":[-5.164304E-2],"split_indices":[0],"split_type":[0],"sum_hessian":[4.0272686E1],"tree_param":{"num_deleted":"0","num_feature":"27","num_nodes":"1","size_leaf_vector":"1"}},{"base_weights":[-4.6670264E-1,-4.8953182E-1,4.2190216E-4,-2.4742992E-1,-5.1353913E-2,1.236834E-2,-3.993808E-2],"categories":[],"categories_nodes":[],"categories_segments":[],"categories_sizes":[],"default_left":[0,0,0,0,0,0,0],"id":36,"left_children":[1,3,-1,5,-1,-1,-1],"loss_changes":[4.3510532E-1,9.627628E-2,0E0,3.537089E-1,0E0,0E0,0E0],"parents":[2147483647,0,0,1,1,3,3],"right_children":[2,4,-1,6,-1,-1,-1],"split_conditions":[9.0225565E-1,2.015E3,4.2190216E-4,6.6E1,-5.1353913E-2,1.236834E-2,-3.993808E-2],"split_indices":[6,0,0,4,0,0,0],"split_type":[0,0,0,0,0,0,0],"sum_hessian":[3.9280087E1,3.7426235E1,1.8538527E0,4.3964667E0,3.302977E1,1.3312218E0,3.0652452E0],"tree_param":{"num_deleted":"0","num_feature":"27","num_nodes":"7","size_leaf_vector":"1"}},{"base_weights":[-4.4152227E-1,-4.865963E-1,-5.596297E-2,-2.0851512E-1,-5.1268663E-2,7.295972E-2,-4.0766906E-2,1.8230228E-2,-3.8277302E-2],"categories":[],"categories_nodes":[],"categories_segments":[],"categories_sizes":[],"default_left":[0,0,0,0,0,0,0,0,0],"id":37,"left_children":[1,3,5,7,-1,-1,-1,-1,-1],"loss_changes":[6.701193E-1,1.528101E-1,1.7700337E0,3.93677E-1,0E0,0E0,0E0,0E0,0E0],"parents":[2147483647,0,0,1,1,2,2,3,3],"right_children":[2,4,6,8,-1,-1,-1,-1,-1],"split_conditions":[3E0,2.015E3,8.2163095E-2,6.6E1,-5.1268663E-2,7.295972E-2,-4.0766906E-2,1.8230228E-2,-3.8277302E-2],"split_indices":[2,0,23,4,0,0,0,0,0],"split_type":[0,0,0,0,0,0,0,0,0],"sum_hessian":[3.912667E1,3.479669E1,4.3299775E0,3.7559803E0,3.1040712E1,1.0067899E0,3.3231876E0,1.144033E0,2.6119475E0],"tree_param":{"num_deleted":"0","num_feature":"27","num_nodes":"9","size_leaf_vector":"1"}},{"base_weights":[-4.9108377E-1,-1.9554023E-1,-5.146381E-2,2.2834778E-2,-3.8082253E-2],"categories":[],"categories_nodes":[],"categories_segments":[],"categories_sizes":[],"default_left":[0,0,0,0,0],"id":38,"left_children":[1,3,-1,-1,-1],"loss_changes":[1.7813206E-1,4.4578102E-1,0E0,0E0,0E0],"parents":[2147483647,0,0,1,1],"right_children":[2,4,-1,-1,-1],"split_conditions":[2E0,1.07292436E-1,-5.146381E-2,2.2834778E-2,-3.8082253E-2],"split_indices":[1,22,0,0,0],"split_type":[0,0,0,0,0],"sum_hessian":[3.9044735E1,3.5687032E0,3.5476032E1,1.014744E0,2.5539591E0],"tree_param":{"num_deleted":"0","num_feature":"27","num_nodes":"5","size_leaf_vector":"1"}},{"base_weights":[-4.895757E-1,2.039881E-2,-5.1507708E-2],"categories":[],"categories_nodes":[],"categories_segments":[],"categories_sizes":[],"default_left":[0,0,0],"id":39,"left_children":[1,-1,-1],"loss_changes":[7.869539E-1,0E0,0E0],"parents":[2147483647,0,0],"right_children":[2,-1,-1],"split_conditions":[3.4468085E-1,2.039881E-2,-5.1507708E-2],"split_indices":[16,0,0],"split_type":[0,0,0],"sum_hessian":[3.7553253E1,1.0835912E0,3.646966E1],"tree_param":{"num_deleted":"0","num_feature":"27","num_nodes":"3","size_leaf_vector":"1"}},{"base_weights":[-3.6756402E-1,2.3190506E-1,-5.127833E-2,1.2972153E0,-4.42254E-2,8.78838E-3,2.0829217E-1],"categories":[],"categories_nodes":[],"categories_segments":[],"categories_sizes":[],"default_left":[0,0,0,0,0,0,0],"id":40,"left_children":[1,3,-1,5,-1,-1,-1],"loss_changes":[3.618936E0,6.6990004E0,0E0,3.1993256E0,0E0,0E0,0E0],"parents":[2147483647,0,0,1,1,3,3],"right_children":[2,4,-1,6,-1,-1,-1],"split_conditions":[3E1,5.6390977E-1,-5.127833E-2,4.2105263E-1,-4.42254E-2,8.78838E-3,2.0829217E-1],"split_indices":[3,11,0,11,0,0,0],"split_type":[0,0,0,0,0,0,0],"sum_hessian":[3.9204933E1,7.528822E0,3.1676113E1,2.5597274E0,4.9690943E0,1.4459797E0,1.1137476E0],"tree_param":{"num_deleted":"0","num_feature":"27","num_nodes":"7","size_leaf_vector":"1"}},{"base_weights":[-5.160884E-1],"categories":[],"categories_nodes":[],"categories_segments":[],"categories_sizes":[],"default_left":[0],"id":41,"left_children":[-1],"loss_changes":[0E0],"parents":[2147483647],"right_children":[-1],"split_conditions":[-5.1608842E-2],"split_indices":[0],"split_type":[0],"sum_hessian":[3.9757957E1],"tree_param":{"num_deleted":"0","num_feature":"27","num_nodes":"1","size_leaf_vector":"1"}},{"base_weights":[-3.044834E-1,4.2490453E-1,-4.578332E-1,1.4546162E-1,-1.1454602E-1,-1.3636243E-1,-5.1123824E-2,7.0914984E-2,-4.2537685E-2,-4.3039627E-2,6.754332E-2],"categories":[],"categories_nodes":[],"categories_segments":[],"categories_sizes":[],"default_left":[0,0,0,0,0,0,0,0,0,0,0],"id":42,"left_children":[1,3,5,-1,7,9,-1,-1,-1,-1,-1],"loss_changes":[4.911684E0,4.5243654E0,5.3680754E-1,0E0,1.8570505E0,1.8175523E0,0E0,0E0,0E0,0E0,0E0],"parents":[2147483647,0,0,1,1,2,2,4,4,5,5],"right_children":[2,4,6,-1,8,10,-1,-1,-1,-1,-1],"split_conditions":[2.5E1,2.6666668E-1,3.9E1,1.4546162E-1,2.6E1,8.7E1,-5.1123824E-2,7.0914984E-2,-4.2537685E-2,-4.3039627E-2,6.754332E-2],"split_indices":[3,10,3,0,4,4,0,0,0,0,0],"split_type":[0,0,0,0,0,0,0,0,0,0,0],"sum_hessian":[4.117332E1,6.845029E0,3.4328293E1,1.769982E0,5.075047E0,5.39664E0,2.8931652E1,1.0393426E0,4.035704E0,4.3066025E0,1.0900372E0],"tree_param":{"num_deleted":"0","num_feature":"27","num_nodes":"11","size_leaf_vector":"1"}},{"base_weights":[-4.6533197E-1,-5.1443554E-2,4.4006456E-2,-3.5003923E-2,4.9847048E-2],"categories":[],"categories_nodes":[],"categories_segments":[],"categories_sizes":[],"default_left":[0,0,0,0,0],"id":43,"left_children":[1,-1,3,-1,-1],"loss_changes":[1.010603E0,0E0,9.614694E-1,0E0,0E0],"parents":[2147483647,0,0,2,2],"right_children":[2,-1,4,-1,-1],"split_conditions":[2.023E3,-5.1443554E-2,2E0,-3.5003923E-2,4.9847048E-2],"split_indices":[0,0,2,0,0],"split_type":[0,0,0,0,0],"sum_hessian":[3.850224E1,3.5107628E1,3.3946116E0,1.9412314E0,1.4533803E0],"tree_param":{"num_deleted":"0","num_feature":"27","num_nodes":"5","size_leaf_vector":"1"}},{"base_weights":[4.064464E-1,1.8589631E0,-5.102698E-2,2.0669713E0,-3.1416517E-2,2.2591763E0,5.695273E-1,2.4163303E0,1.0676069E0,-2.7590418E-2,1.1160145E-1,2.8640935E-1,1.524122E0,-2.8334914E-2,1.8071796E-1,2.9167295E-2,2.0617433E-1],"categories":[],"categories_nodes":[],"categories_segments":[],"categories_sizes":[],"default_left":[0,0,0,0,0,0,0,0,0,0,0,0,0,0,0,0,0],"id":44,"left_children":[1,3,-1,5,-1,7,9,11,13,-1,-1,-1,15,-1,-1,-1,-1],"loss_changes":[6.073651E1,8.599987E0,0E0,3.3714142E0,0E0,4.309845E-2,1.7762479E0,2.6197815E-1,3.9326546E0,0E0,0E0,0E0,3.3793821E0,0E0,0E0,0E0,0E0],"parents":[2147483647,0,0,1,1,3,3,5,5,6,6,7,7,8,8,12,12],"right_children":[2,4,-1,6,-1,8,10,12,14,-1,-1,-1,16,-1,-1,-1,-1],"split_conditions":[3.4E1,7.017544E-1,-5.102698E-2,3.9591032E-1,-3.1416517E-2,6.5531915E-1,5.7894737E-1,5.6E1,6.638298E-1,-2.7590418E-2,1.1160145E-1,2.8640935E-1,7.1E1,-2.8334914E-2,1.8071796E-1,2.9167295E-2,2.0617433E-1],"split_indices":[3,7,0,23,0,19,7,4,8,0,0,0,4,0,0,0,0],"split_type":[0,0,0,0,0,0,0,0,0,0,0,0,0,0,0,0,0],"sum_hessian":[4.3901154E1,1.6588766E1,2.7312386E1,1.518421E1,1.4045569E0,1.3006116E1,2.178094E0,1.0582546E1,2.4235692E0,1.0495464E0,1.1285475E0,5.57471E0,5.007837E0,1.0756271E0,1.3479422E0,1.989533E0,3.0183036E0],"tree_param":{"num_deleted":"0","num_feature":"27","num_nodes":"17","size_leaf_vector":"1"}},{"base_weights":[-3.676894E-1,1.7892145E-1,-5.128763E-2,-2.1618845E-1,1.559028E-1,-4.460789E-2,3.6261886E-2],"categories":[],"categories_nodes":[],"categories_segments":[],"categories_sizes":[],"default_left":[0,0,0,0,0,0,0],"id":45,"left_children":[1,3,-1,5,-1,-1,-1],"loss_changes":[3.2808971E0,5.3401203E0,0E0,1.2277381E0,0E0,0E0,0E0],"parents":[2147483647,0,0,1,1,3,3],"right_children":[2,4,-1,6,-1,-1,-1],"split_conditions":[3.1E1,3.9591032E-1,-5.128763E-2,6.4912283E-1,1.559028E-1,-4.460789E-2,3.6261886E-2],"split_indices":[3,5,0,12,0,0,0],"split_type":[0,0,0,0,0,0,0],"sum_hessian":[3.918529E1,8.175012E0,3.101028E1,7.0111485E0,1.1638638E0,5.1821985E0,1.8289499E0],"tree_param":{"num_deleted":"0","num_feature":"27","num_nodes":"7","size_leaf_vector":"1"}},{"base_weights":[-4.9242717E-1,-5.158635E-2,-1.9281748E-3],"categories":[],"categories_nodes":[],"categories_segments":[],"categories_sizes":[],"default_left":[0,0,0],"id":46,"left_children":[1,-1,-1],"loss_changes":[4.502821E-1,0E0,0E0],"parents":[2147483647,0,0],"right_children":[2,-1,-1],"split_conditions":[7.785169E-1,-5.158635E-2,-1.9281748E-3],"split_indices":[23,0,0],"split_type":[0,0,0],"sum_hessian":[4.050396E1,3.850634E1,1.9976187E0],"tree_param":{"num_deleted":"0","num_feature":"27","num_nodes":"3","size_leaf_vector":"1"}},{"base_weights":[2.2631288E0,-4.4224557E-1,2.744963E-1,3.9763236E-3,-5.0175507E-2],"categories":[],"categories_nodes":[],"categories_segments":[],"categories_sizes":[],"default_left":[0,0,0,0,0],"id":47,"left_children":[1,3,-1,-1,-1],"loss_changes":[1.2855154E2,4.6825957E-1,0E0,0E0,0E0],"parents":[2147483647,0,0,1,1],"right_children":[2,4,-1,-1,-1],"split_conditions":[1.05E2,1.5274698E-2,2.744963E-1,3.9763236E-3,-5.0175507E-2],"split_indices":[4,24,0,0,0],"split_type":[0,0,0,0,0],"sum_hessian":[9.668589E1,1.4629149E1,8.205674E1,1.6441176E0,1.2985032E1],"tree_param":{"num_deleted":"0","num_feature":"27","num_nodes":"5","size_leaf_vector":"1"}},{"base_weights":[-5.3945955E-2,8.145999E-1,-5.0784577E-2,-3.6039338E-2,1.0431126E0,-3.2428157E-2,1.2662472E0,8.163959E-3,1.447133E0,8.945914E-1,2.320693E-1,1.6998166E-1,2.0725802E-3],"categories":[],"categories_nodes":[],"categories_segments":[],"categories_sizes":[],"default_left":[0,0,0,0,0,0,0,0,0,0,0,0,0],"id":48,"left_children":[1,3,-1,-1,5,-1,7,-1,9,11,-1,-1,-1],"loss_changes":[1.6487963E1,4.2366047E0,0E0,0E0,4.1617823E0,0E0,2.19038E0,0E0,2.40633E0,5.1125703E0,0E0,0E0,0E0],"parents":[2147483647,0,0,1,1,4,4,6,6,8,8,9,9],"right_children":[2,4,-1,-1,6,-1,8,-1,10,12,-1,-1,-1],"split_conditions":[1.04E2,4E-1,-5.0784577E-2,-3.6039338E-2,4.385965E-1,-3.2428157E-2,3.473762E-2,8.163959E-3,6.9924814E-1,5.9574467E-1,2.320693E-1,1.6998166E-1,2.0725802E-3],"split_indices":[4,10,0,0,12,0,23,0,14,8,0,0,0],"split_type":[0,0,0,0,0,0,0,0,0,0,0,0,0],"sum_hessian":[3.9773552E1,1.3378628E1,2.6394924E1,2.0842848E0,1.1294343E1,1.520885E0,9.7734585E0,1.4869392E0,8.286519E0,6.3157654E0,1.9707537E0,2.7950716E0,3.5206938E0],"tree_param":{"num_deleted":"0","num_feature":"27","num_nodes":"13","size_leaf_vector":"1"}},{"base_weights":[-3.404184E-1,1.7961873E-1,-5.0967652E-2,3.752821E-1,-3.68824E-2,1.1595889E-2,1.0787709E-1,-4.133118E-2,6.358833E-2],"categories":[],"categories_nodes":[],"categories_segments":[],"categories_sizes":[],"default_left":[0,0,0,0,0,0,0,0,0],"id":49,"left_children":[1,3,-1,5,-1,7,-1,-1,-1],"loss_changes":[3.6045775E0,1.2694387E0,0E0,2.1018276E0,0E0,1.9760414E0,0E0,0E0,0E0],"parents":[2147483647,0,0,1,1,3,3,5,5],"right_children":[2,4,-1,6,-1,8,-1,-1,-1],"split_conditions":[7.1E1,6.111111E-1,-5.0967652E-2,2.6385808E-1,-3.68824E-2,5.6E1,1.0787709E-1,-4.133118E-2,6.358833E-2],"split_indices":[4,20,0,23,0,4,0,0,0],"split_type":[0,0,0,0,0,0,0,0,0],"sum_hessian":[3.89115E1,9.539782E0,2.9371717E1,7.263997E0,2.2757847E0,5.458547E0,1.80545E0,3.4490037E0,2.0095432E0],"tree_param":{"num_deleted":"0","num_feature":"27","num_nodes":"9","size_leaf_vector":"1"}},{"base_weights":[-4.6220866E-1,-1.7268199E-1,-5.110206E-2,5.0989445E-2,-4.362763E-2],"categories":[],"categories_nodes":[],"categories_segments":[],"categories_sizes":[],"default_left":[0,0,0,0,0],"id":50,"left_children":[1,3,-1,-1,-1],"loss_changes":[4.5475483E-1,1.4915544E0,0E0,0E0,0E0],"parents":[2147483647,0,0,1,1],"right_children":[2,4,-1,-1,-1],"split_conditions":[2.4E1,3.8925845E-2,-5.110206E-2,5.0989445E-2,-4.362763E-2],"split_indices":[3,22,0,0,0],"split_type":[0,0,0,0,0],"sum_hessian":[3.7422386E1,6.0535607E0,3.1368826E1,1.4261527E0,4.627408E0],"tree_param":{"num_deleted":"0","num_feature":"27","num_nodes":"5","size_leaf_vector":"1"}},{"base_weights":[-4.8815566E-1,-3.476702E-2,-5.1289655E-2,2.3338972E-2,-2.7582942E-2],"categories":[],"categories_nodes":[],"categories_segments":[],"categories_sizes":[],"default_left":[0,0,0,0,0],"id":51,"left_children":[1,3,-1,-1,-1],"loss_changes":[4.1845036E-1,2.6381648E-1,0E0,0E0,0E0],"parents":[2147483647,0,0,1,1],"right_children":[2,4,-1,-1,-1],"split_conditions":[8E0,1.7898497E-1,-5.1289655E-2,2.3338972E-2,-2.7582942E-2],"split_indices":[3,22,0,0,0],"split_type":[0,0,0,0,0],"sum_hessian":[3.7894005E1,2.0852883E0,3.5808716E1,1.002235E0,1.0830532E0],"tree_param":{"num_deleted":"0","num_feature":"27","num_nodes":"5","size_leaf_vector":"1"}},{"base_weights":[-4.6153793E-1,-4.8607373E-1,1.1314988E-2,-5.1072385E-2,-2.838156E-1,2.2581395E-2,-4.2653713E-2],"categories":[],"categories_nodes":[],"categories_segments":[],"categories_sizes":[],"default_left":[0,0,0,0,0,0,0],"id":52,"left_children":[1,3,-1,-1,5,-1,-1],"loss_changes":[5.9305E-1,3.8446426E-2,0E0,0E0,5.5068785E-1,0E0,0E0],"parents":[2147483647,0,0,1,1,4,4],"right_children":[2,4,-1,-1,6,-1,-1],"split_conditions":[9.0225565E-1,1.1E1,1.1314988E-2,-5.1072385E-2,5.321508E-2,2.2581395E-2,-4.2653713E-2],"split_indices":[6,1,0,0,22,0,0],"split_type":[0,0,0,0,0,0,0],"sum_hessian":[3.7158527E1,3.5784916E1,1.3736119E0,3.0538002E1,5.2469115E0,1.020547E0,4.2263646E0],"tree_param":{"num_deleted":"0","num_feature":"27","num_nodes":"7","size_leaf_vector":"1"}},{"base_weights":[-4.364747E-1,1.827455E-1,-4.8510894E-1,7.2915964E-2,-3.2152377E-2,-2.2388075E-1,-5.1081624E-2,2.2417687E-2,-3.9609138E-2],"categories":[],"categories_nodes":[],"categories_segments":[],"categories_sizes":[],"default_left":[0,0,0,0,0,0,0,0,0],"id":53,"left_children":[1,3,5,-1,-1,7,-1,-1,-1],"loss_changes":[1.2512221E0,1.2091848E0,1.27841E-1,0E0,0E0,4.754856E-1,0E0,0E0,0E0],"parents":[2147483647,0,0,1,1,2,2,5,5],"right_children":[2,4,6,-1,-1,8,-1,-1,-1],"split_conditions":[9E0,5.555556E-1,2.015E3,7.2915964E-2,-3.2152377E-2,5.7872343E-1,-5.1081624E-2,2.2417687E-2,-3.9609138E-2],"split_indices":[3,21,0,0,0,16,0,0,0],"split_type":[0,0,0,0,0,0,0,0,0],"sum_hessian":[3.7603977E1,2.5375738E0,3.5066402E1,1.0038514E0,1.5337224E0,4.0115294E0,3.1054873E1,1.0299766E0,2.981553E0],"tree_param":{"num_deleted":"0","num_feature":"27","num_nodes":"9","size_leaf_vector":"1"}},{"base_weights":[-4.8779964E-1,-2.0298727E-1,-5.121032E-2,2.195212E-2,-3.834616E-2],"categories":[],"categories_nodes":[],"categories_segments":[],"categories_sizes":[],"default_left":[0,0,0,0,0],"id":54,"left_children":[1,3,-1,-1,-1],"loss_changes":[1.6236496E-1,4.4115824E-1,0E0,0E0,0E0],"parents":[2147483647,0,0,1,1],"right_children":[2,4,-1,-1,-1],"split_conditions":[2E0,4.8E1,-5.121032E-2,2.195212E-2,-3.834616E-2],"split_indices":[1,4,0,0,0],"split_type":[0,0,0,0,0],"sum_hessian":[3.7473785E1,3.68159E0,3.3792194E1,1.0371532E0,2.6444368E0],"tree_param":{"num_deleted":"0","num_feature":"27","num_nodes":"5","size_leaf_vector":"1"}},{"base_weights":[-4.8715705E-1,2.1205703E-2,-5.1304974E-2],"categories":[],"categories_nodes":[],"categories_segments":[],"categories_sizes":[],"default_left":[0,0,0],"id":55,"left_children":[1,-1,-1],"loss_changes":[7.9531956E-1,0E0,0E0],"parents":[2147483647,0,0],"right_children":[2,-1,-1],"split_conditions":[3.3834586E-1,2.1205703E-2,-5.1304974E-2],"split_indices":[6,0,0],"split_type":[0,0,0],"sum_hessian":[3.691999E1,1.0616274E0,3.585836E1],"tree_param":{"num_deleted":"0","num_feature":"27","num_nodes":"3","size_leaf_vector":"1"}},{"base_weights":[-3.7965187E-1,8.689996E-2,-4.5695058E-1,2.0822283E-2,-4.8358813E-1,-2.3657592E-1,-5.09934E-2,2.2945607E-2,-4.0331688E-2],"categories":[],"categories_nodes":[],"categories_segments":[],"categories_sizes":[],"default_left":[0,0,0,0,0,0,0,0,0],"id":56,"left_children":[1,-1,3,-1,5,7,-1,-1,-1],"loss_changes":[3.976017E0,0E0,7.3100996E-1,0E0,1.039114E-1,4.9591735E-1,0E0,0E0,0E0],"parents":[2147483647,0,0,2,2,4,4,5,5],"right_children":[2,-1,4,-1,6,8,-1,-1,-1],"split_conditions":[7E0,8.689996E-2,3.9473686E-1,2.0822283E-2,2.2E1,6.0902256E-1,-5.09934E-2,2.2945607E-2,-4.0331688E-2],"split_indices":[3,0,7,0,3,14,0,0,0],"split_type":[0,0,0,0,0,0,0,0,0],"sum_hessian":[3.6079987E1,1.5062667E0,3.457372E1,1.068751E0,3.3504967E1,4.190984E0,2.9313984E1,1.0052477E0,3.185736E0],"tree_param":{"num_deleted":"0","num_feature":"27","num_nodes":"9","size_leaf_vector":"1"}},{"base_weights":[-5.135438E-1],"categories":[],"categories_nodes":[],"categories_segments":[],"categories_sizes":[],"default_left":[0],"id":57,"left_children":[-1],"loss_changes":[0E0],"parents":[2147483647],"right_children":[-1],"split_conditions":[-5.135438E-2],"split_indices":[0],"split_type":[0],"sum_hessian":[3.756337E1],"tree_param":{"num_deleted":"0","num_feature":"27","num_nodes":"1","size_leaf_vector":"1"}},{"base_weights":[-3.0645937E-1,9.0734303E-1,-4.035341E-1,1.6900088E-1,-2.7912019E-2,-4.5573303E-1,4.94967E-2,-4.8194852E-1,-1.724914E-3,-1.3615033E-1,-5.1097043E-2,-3.4233123E-2,2.1531627E-2],"categories":[],"categories_nodes":[],"categories_segments":[],"categories_sizes":[],"default_left":[0,0,0,0,0,0,0,0,0,0,0,0,0],"id":58,"left_children":[1,3,5,-1,-1,7,-1,9,-1,11,-1,-1,-1],"loss_changes":[4.869874E0,3.385981E0,1.9179449E0,0E0,0E0,3.8968658E-1,0E0,2.5792742E-1,0E0,3.5560006E-1,0E0,0E0,0E0],"parents":[2147483647,0,0,1,1,2,2,5,5,7,7,9,9],"right_children":[2,4,6,-1,-1,8,-1,10,-1,12,-1,-1,-1],"split_conditions":[1.9E1,2.021E3,9.0225565E-1,1.6900088E-1,-2.7912019E-2,7.407407E-1,4.94967E-2,2E0,-1.724914E-3,6.403509E-1,-5.1097043E-2,-3.4233123E-2,2.1531627E-2],"split_indices":[4,0,17,0,0,9,0,1,0,15,0,0,0],"split_type":[0,0,0,0,0,0,0,0,0,0,0,0,0],"sum_hessian":[3.7222412E1,2.1383297E0,3.5084084E1,1.0326921E0,1.1056376E0,3.3623493E1,1.4605912E0,3.163313E1,1.9903629E0,2.8899863E0,2.8743143E1,1.8378438E0,1.0521424E0],"tree_param":{"num_deleted":"0","num_feature":"27","num_nodes":"13","size_leaf_vector":"1"}},{"base_weights":[-4.6238023E-1,-5.1235437E-2,4.7623485E-2,-3.5423078E-2,5.352604E-2],"categories":[],"categories_nodes":[],"categories_segments":[],"categories_sizes":[],"default_left":[0,0,0,0,0],"id":59,"left_children":[1,-1,3,-1,-1],"loss_changes":[1.010293E0,0E0,1.0453724E0,0E0,0E0],"parents":[2147483647,0,0,2,2],"right_children":[2,-1,4,-1,-1],"split_conditions":[2.023E3,-5.1235437E-2,1.7898497E-1,-3.5423078E-2,5.352604E-2],"split_indices":[0,0,22,0,0],"split_type":[0,0,0,0,0],"sum_hessian":[3.7682182E1,3.431511E1,3.3670712E0,1.9958763E0,1.3711947E0],"tree_param":{"num_deleted":"0","num_feature":"27","num_nodes":"5","size_leaf_vector":"1"}},{"base_weights":[4.5987383E-1,1.5687083E0,-5.0735515E-2,1.7816969E0,9.218608E-2,1.931462E0,-2.9734224E-2,-3.301907E-2,5.0865937E-2,2.0298893E0,4.669365E-2,2.1187196E0,5.44325E-2,1.0109558E-1,2.3746231E-1],"categories":[],"categories_nodes":[],"categories_segments":[],"categories_sizes":[],"default_left":[0,0,0,0,0,0,0,0,0,0,0,0,0,0,0],"id":60,"left_children":[1,3,-1,5,7,9,-1,-1,-1,11,-1,13,-1,-1,-1],"loss_changes":[5.3416817E1,7.1012573E0,0E0,6.844002E0,8.657942E-1,1.7789612E0,0E0,0E0,0E0,1.1463547E0,0E0,2.1626587E0,0E0,0E0,0E0],"parents":[2147483647,0,0,1,1,3,3,4,4,5,5,9,9,11,11],"right_children":[2,4,-1,6,8,10,-1,-1,-1,12,-1,14,-1,-1,-1],"split_conditions":[1.04E2,3.9591032E-1,-5.0735515E-2,7.017544E-1,6.666667E-1,6.9298244E-1,-2.9734224E-2,-3.301907E-2,5.0865937E-2,5E-1,4.669365E-2,5.580192E-2,5.44325E-2,1.0109558E-1,2.3746231E-1],"split_indices":[4,23,0,7,15,18,0,0,0,10,0,24,0,0,0],"split_type":[0,0,0,0,0,0,0,0,0,0,0,0,0,0,0],"sum_hessian":[4.8063942E1,2.210306E1,2.596088E1,1.9136003E1,2.9670565E0,1.7916368E1,1.2196354E0,1.575946E0,1.3911104E0,1.6426353E1,1.4900147E0,1.509739E1,1.3289641E0,3.7621603E0,1.133523E1],"tree_param":{"num_deleted":"0","num_feature":"27","num_nodes":"15","size_leaf_vector":"1"}},{"base_weights":[-3.1638467E-1,2.6292437E-1,-5.0997395E-2,6.639642E-1,-4.1619454E-2,-1.6521463E-1,1.3759665E0,2.2348385E-2,-3.6248636E-2,1.7692223E-1,4.6326216E-2],"categories":[],"categories_nodes":[],"categories_segments":[],"categories_sizes":[],"default_left":[0,0,0,0,0,0,0,0,0,0,0],"id":61,"left_children":[1,3,-1,5,-1,7,9,-1,-1,-1,-1],"loss_changes":[4.634498E0,3.1935363E0,0E0,4.4305696E0,0E0,4.016776E-1,5.9370995E-1,0E0,0E0,0E0,0E0],"parents":[2147483647,0,0,1,1,3,3,5,5,6,6],"right_children":[2,4,-1,6,-1,8,10,-1,-1,-1,-1],"split_conditions":[3.1E1,6.8421054E-1,-5.0997395E-2,5E0,-4.1619454E-2,5.0212765E-1,6.616541E-1,2.2348385E-2,-3.6248636E-2,1.7692223E-1,4.6326216E-2],"split_indices":[3,14,0,1,0,19,6,0,0,0,0],"split_type":[0,0,0,0,0,0,0,0,0,0,0],"sum_hessian":[3.9129223E1,9.711062E0,2.9418161E1,6.119582E0,3.59148E0,3.1819391E0,2.9376433E0,1.0264932E0,2.1554458E0,1.3971958E0,1.5404475E0],"tree_param":{"num_deleted":"0","num_feature":"27","num_nodes":"11","size_leaf_vector":"1"}},{"base_weights":[-4.873713E-1,-6.88105E-4,-5.126959E-2],"categories":[],"categories_nodes":[],"categories_segments":[],"categories_sizes":[],"default_left":[0,0,0],"id":62,"left_children":[1,-1,-1],"loss_changes":[4.5920944E-1,0E0,0E0],"parents":[2147483647,0,0],"right_children":[2,-1,-1],"split_conditions":[8E0,-6.88105E-4,-5.126959E-2],"split_indices":[3,0,0],"split_type":[0,0,0],"sum_hessian":[3.7028416E1,1.9175698E0,3.5110847E1],"tree_param":{"num_deleted":"0","num_feature":"27","num_nodes":"3","size_leaf_vector":"1"}},{"base_weights":[1.8044049E0,-5.017655E-2,2.1246183E-1],"categories":[],"categories_nodes":[],"categories_segments":[],"categories_sizes":[],"default_left":[0,0,0],"id":63,"left_children":[1,-1,-1],"loss_changes":[8.259805E1,0E0,0E0],"parents":[2147483647,0,0],"right_children":[2,-1,-1],"split_conditions":[1.05E2,-5.017655E-2,2.1246183E-1],"split_indices":[4,0,0],"split_type":[0,0,0],"sum_hessian":[1.0940718E2,1.3269995E1,9.6137184E1],"tree_param":{"num_deleted":"0","num_feature":"27","num_nodes":"3","size_leaf_vector":"1"}},{"base_weights":[-2.3487149E-2,7.090799E-1,-5.049473E-2,3.7689927E-1,1.564972E0,3.7935186E-2,9.418077E-1,1.939138E-1,1.900787E-2,3.4514952E-1,-4.1215755E-2,-2.7006859E-2,1.3164449E-1,-3.689345E-2,8.209518E-1,-9.900333E-4,1.5603893E-1],"categories":[],"categories_nodes":[],"categories_segments":[],"categories_sizes":[],"default_left":[0,0,0,0,0,0,0,0,0,0,0,0,0,0,0,0,0],"id":64,"left_children":[1,3,-1,5,7,9,11,-1,-1,13,-1,-1,-1,-1,15,-1,-1],"loss_changes":[1.5204344E1,4.2745028E0,0E0,2.5766444E0,1.9291191E0,1.4653444E0,2.6593137E0,0E0,0E0,2.4199867E0,0E0,0E0,0E0,0E0,2.5033357E0,0E0,0E0],"parents":[2147483647,0,0,1,1,3,3,4,4,5,5,6,6,9,9,14,14],"right_children":[2,4,-1,6,8,10,12,-1,-1,14,-1,-1,-1,-1,16,-1,-1],"split_conditions":[1.04E2,3.7225917E-1,-5.049473E-2,7.067669E-1,6.666667E-1,6.5413535E-1,4E-1,1.939138E-1,1.900787E-2,5.263158E-1,-4.1215755E-2,-2.7006859E-2,1.3164449E-1,-3.689345E-2,1.4720374E-1,-9.900333E-4,1.5603893E-1],"split_indices":[4,22,0,14,20,14,10,0,0,7,0,0,0,0,22,0,0],"split_type":[0,0,0,0,0,0,0,0,0,0,0,0,0,0,0,0,0],"sum_hessian":[4.109305E1,1.6109232E1,2.4983814E1,1.2642791E1,3.4664402E0,8.568535E0,4.074257E0,2.4022863E0,1.0641539E0,5.2311387E0,3.3373957E0,1.0280004E0,3.0462563E0,2.1815999E0,3.0495389E0,1.9005922E0,1.1489468E0],"tree_param":{"num_deleted":"0","num_feature":"27","num_nodes":"17","size_leaf_vector":"1"}},{"base_weights":[-3.2857364E-1,1.6608284E-1,-5.064794E-2,-2.673433E-1,5.474072E-1,-4.145713E-2,1.5130788E-2,8.5198355E-1,-3.0194992E-2,2.2624308E-1,1.3688557E-1,-2.9790191E-2,6.922613E-2],"categories":[],"categories_nodes":[],"categories_segments":[],"categories_sizes":[],"default_left":[0,0,0,0,0,0,0,0,0,0,0,0,0],"id":65,"left_children":[1,3,-1,5,7,-1,-1,9,-1,11,-1,-1,-1],"loss_changes":[3.4018188E0,1.9190116E0,0E0,4.135469E-1,1.8181678E0,0E0,0E0,1.2113478E0,0E0,1.0184917E0,0E0,0E0,0E0],"parents":[2147483647,0,0,1,1,3,3,4,4,7,7,9,9],"right_children":[2,4,-1,6,8,-1,-1,10,-1,12,-1,-1,-1],"split_conditions":[7.1E1,2.021E3,-5.064794E-2,1.1E1,2.1088938E-1,-4.145713E-2,1.5130788E-2,4.8E1,-3.0194992E-2,5E0,1.3688557E-1,-2.9790191E-2,6.922613E-2],"split_indices":[4,0,0,1,22,0,0,4,0,1,0,0,0],"split_type":[0,0,0,0,0,0,0,0,0,0,0,0,0],"sum_hessian":[3.670019E1,9.725492E0,2.6974699E1,4.691679E0,5.033812E0,3.478228E0,1.2134509E0,3.7028809E0,1.3309314E0,2.3253996E0,1.377481E0,1.264231E0,1.0611688E0],"tree_param":{"num_deleted":"0","num_feature":"27","num_nodes":"13","size_leaf_vector":"1"}},{"base_weights":[-4.307392E-1,-3.8388792E-2,-4.793954E-1,-3.9577734E-2,6.4696364E-2,-5.0801136E-2,-1.5515028E-1,-3.5586122E-2,2.3113336E-2],"categories":[],"categories_nodes":[],"categories_segments":[],"categories_sizes":[],"default_left":[0,0,0,0,0,0,0,0,0],"id":66,"left_children":[1,3,5,-1,-1,-1,7,-1,-1],"loss_changes":[6.852164E-1,1.5183438E0,2.246275E-1,0E0,0E0,0E0,3.995004E-1,0E0,0E0],"parents":[2147483647,0,0,1,1,2,2,6,6],"right_children":[2,4,6,-1,-1,-1,8,-1,-1],"split_conditions":[2.015E3,1.1E1,3E0,-3.9577734E-2,6.4696364E-2,-5.0801136E-2,6.893617E-1,-3.5586122E-2,2.3113336E-2],"split_indices":[0,1,2,0,0,0,13,0,0],"split_type":[0,0,0,0,0,0,0,0,0],"sum_hessian":[3.5857468E1,4.1535277E0,3.170394E1,3.0076551E0,1.1458726E0,2.8612059E1,3.0918803E0,2.0865016E0,1.0053787E0],"tree_param":{"num_deleted":"0","num_feature":"27","num_nodes":"9","size_leaf_vector":"1"}},{"base_weights":[-5.114416E-1],"categories":[],"categories_nodes":[],"categories_segments":[],"categories_sizes":[],"default_left":[0],"id":67,"left_children":[-1],"loss_changes":[0E0],"parents":[2147483647],"right_children":[-1],"split_conditions":[-5.114416E-2],"split_indices":[0],"split_type":[0],"sum_hessian":[3.574723E1],"tree_param":{"num_deleted":"0","num_feature":"27","num_nodes":"1","size_leaf_vector":"1"}},{"base_weights":[-4.8424783E-1,-5.111606E-2,1.3693354E-2],"categories":[],"categories_nodes":[],"categories_segments":[],"categories_sizes":[],"default_left":[0,0,0],"id":68,"left_children":[1,-1,-1],"loss_changes":[6.773529E-1,0E0,0E0],"parents":[2147483647,0,0],"right_children":[2,-1,-1],"split_conditions":[9.0225565E-1,-5.111606E-2,1.3693354E-2],"split_indices":[11,0,0],"split_type":[0,0,0],"sum_hessian":[3.5330105E1,3.4032745E1,1.2973604E0],"tree_param":{"num_deleted":"0","num_feature":"27","num_nodes":"3","size_leaf_vector":"1"}},{"base_weights":[-4.554735E-1,-2.4322428E-1,-5.0714005E-2,-4.5597006E-2,5.1961478E-2],"categories":[],"categories_nodes":[],"categories_segments":[],"categories_sizes":[],"default_left":[0,0,0,0,0],"id":69,"left_children":[1,3,-1,-1,-1],"loss_changes":[2.673812E-1,1.68082E0,0E0,0E0,0E0],"parents":[2147483647,0,0,1,1],"right_children":[2,4,-1,-1,-1],"split_conditions":[5.321508E-2,7E0,-5.0714005E-2,-4.5597006E-2,5.1961478E-2],"split_indices":[22,1,0,0,0],"split_type":[0,0,0,0,0],"sum_hessian":[3.4630474E1,7.896939E0,2.6733534E1,6.4894023E0,1.4075367E0],"tree_param":{"num_deleted":"0","num_feature":"27","num_nodes":"5","size_leaf_vector":"1"}},{"base_weights":[-4.843099E-1,-2.3223498E-1,-5.0937142E-2,-4.0058065E-2,2.2577286E-2],"categories":[],"categories_nodes":[],"categories_segments":[],"categories_sizes":[],"default_left":[0,0,0,0,0],"id":70,"left_children":[1,3,-1,-1,-1],"loss_changes":[1.13557816E-1,4.8805055E-1,0E0,0E0,0E0],"parents":[2147483647,0,0,1,1],"right_children":[2,4,-1,-1,-1],"split_conditions":[4.7E1,6.5789473E-1,-5.0937142E-2,-4.0058065E-2,2.2577286E-2],"split_indices":[4,18,0,0,0],"split_type":[0,0,0,0,0],"sum_hessian":[3.5700684E1,4.15683E0,3.1543852E1,3.1312797E0,1.0255504E0],"tree_param":{"num_deleted":"0","num_feature":"27","num_nodes":"5","size_leaf_vector":"1"}},{"base_weights":[-4.8305866E-1,-5.1057167E-2,2.3414496E-2],"categories":[],"categories_nodes":[],"categories_segments":[],"categories_sizes":[],"default_left":[0,0,0],"id":71,"left_children":[1,-1,-1],"loss_changes":[8.2394505E-1,0E0,0E0],"parents":[2147483647,0,0],"right_children":[2,-1,-1],"split_conditions":[8.408475E-1,-5.1057167E-2,2.3414496E-2],"split_indices":[23,0,0],"split_type":[0,0,0],"sum_hessian":[3.4697525E1,3.3693115E1,1.0044097E0],"tree_param":{"num_deleted":"0","num_feature":"27","num_nodes":"3","size_leaf_vector":"1"}},{"base_weights":[-3.2592818E-1,3.187568E-1,-5.075189E-2,1.1852492E0,-4.3235954E-2,7.3145353E-3,1.7410718E-1],"categories":[],"categories_nodes":[],"categories_segments":[],"categories_sizes":[],"default_left":[0,0,0,0,0,0,0],"id":72,"left_children":[1,3,-1,5,-1,-1,-1],"loss_changes":[4.530478E0,6.249886E0,0E0,2.5681014E0,0E0,0E0,0E0],"parents":[2147483647,0,0,1,1,3,3],"right_children":[2,4,-1,6,-1,-1,-1],"split_conditions":[3E1,5.864662E-1,-5.075189E-2,2.018E3,-4.3235954E-2,7.3145353E-3,1.7410718E-1],"split_indices":[3,14,0,0,0,0,0],"split_type":[0,0,0,0,0,0,0],"sum_hessian":[3.631739E1,7.8154726E0,2.8501919E1,3.3606372E0,4.4548354E0,1.4970002E0,1.863637E0],"tree_param":{"num_deleted":"0","num_feature":"27","num_nodes":"7","size_leaf_vector":"1"}},{"base_weights":[-5.1104736E-1],"categories":[],"categories_nodes":[],"categories_segments":[],"categories_sizes":[],"default_left":[0],"id":73,"left_children":[-1],"loss_changes":[0E0],"parents":[2147483647],"right_children":[-1],"split_conditions":[-5.1104736E-2],"split_indices":[0],"split_type":[0],"sum_hessian":[3.5262E1],"tree_param":{"num_deleted":"0","num_feature":"27","num_nodes":"1","size_leaf_vector":"1"}},{"base_weights":[-2.7722582E-1,4.077186E-1,-4.4451928E-1,9.269724E-1,-3.958661E-2,-9.00468E-2,-5.0527442E-2,-3.251211E-2,1.579559E0,-4.1385256E-2,6.590665E-2,2.3650904E-1,1.2561755E-2],"categories":[],"categories_nodes":[],"categories_segments":[],"categories_sizes":[],"default_left":[0,0,0,0,0,0,0,0,0,0,0,0,0],"id":74,"left_children":[1,3,5,7,-1,9,-1,-1,11,-1,-1,-1,-1],"loss_changes":[4.5171638E0,3.6839929E0,6.1975384E-1,4.703901E0,0E0,1.6642779E0,0E0,0E0,3.7482147E0,0E0,0E0,0E0,0E0],"parents":[2147483647,0,0,1,1,2,2,3,3,5,5,8,8],"right_children":[2,4,6,8,-1,10,-1,-1,12,-1,-1,-1,-1],"split_conditions":[2.5E1,6.22807E-1,3.9E1,5.7894737E-1,-3.958661E-2,8.6E1,-5.0527442E-2,-3.251211E-2,6.917293E-1,-4.1385256E-2,6.590665E-2,2.3650904E-1,1.2561755E-2],"split_indices":[3,7,3,11,0,4,0,0,11,0,0,0,0],"split_type":[0,0,0,0,0,0,0,0,0,0,0,0,0],"sum_hessian":[3.683968E1,6.949483E0,2.9890198E1,4.1283274E0,2.8211553E0,4.7366443E0,2.5153555E1,1.5863853E0,2.5419421E0,3.6196058E0,1.1170385E0,1.243456E0,1.2984861E0],"tree_param":{"num_deleted":"0","num_feature":"27","num_nodes":"13","size_leaf_vector":"1"}},{"base_weights":[-4.8570713E-1,-1.8248685E-1,-5.106733E-2,-3.714457E-2,2.2293255E-2],"categories":[],"categories_nodes":[],"categories_segments":[],"categories_sizes":[],"default_left":[0,0,0,0,0],"id":75,"left_children":[1,3,-1,-1,-1],"loss_changes":[1.923666E-1,4.2184284E-1,0E0,0E0,0E0],"parents":[2147483647,0,0,1,1],"right_children":[2,4,-1,-1,-1],"split_conditions":[4E1,6.315789E-1,-5.106733E-2,-3.714457E-2,2.2293255E-2],"split_indices":[4,7,0,0,0],"split_type":[0,0,0,0,0],"sum_hessian":[3.6721184E1,3.4256127E0,3.329557E1,2.393734E0,1.0318786E0],"tree_param":{"num_deleted":"0","num_feature":"27","num_nodes":"5","size_leaf_vector":"1"}},{"base_weights":[2.541042E-1,1.1841385E0,-5.0574686E-2,1.3124611E0,-3.2261863E-2,5.665771E-1,1.5669893E0,1.5884759E-1,7.897032E-2,1.7176399E0,3.3536576E-2,-2.1465546E-1,6.802034E-2,6.924443E-1,2.0089796E-1,-3.9299082E-2,1.8474048E-2,1.1028279E-1,-3.0307813E-2],"categories":[],"categories_nodes":[],"categories_segments":[],"categories_sizes":[],"default_left":[0,0,0,0,0,0,0,0,0,0,0,0,0,0,0,0,0,0,0],"id":76,"left_children":[1,3,-1,5,-1,7,9,-1,11,13,-1,15,-1,17,-1,-1,-1,-1,-1],"loss_changes":[3.4196774E1,4.614643E0,0E0,2.9419632E0,0E0,3.2124588E0,2.1095467E0,0E0,1.132365E0,2.3883743E0,0E0,3.941204E-1,0E0,2.101688E0,0E0,0E0,0E0,0E0,0E0],"parents":[2147483647,0,0,1,1,3,3,5,5,6,6,8,8,9,9,11,11,13,13],"right_children":[2,4,-1,6,-1,8,10,-1,12,14,-1,16,-1,18,-1,-1,-1,-1,-1],"split_conditions":[3.4E1,7.017544E-1,-5.0574686E-2,6.466165E-1,-3.2261863E-2,4.6932742E-2,6.666667E-1,1.5884759E-1,6.447401E-1,5.4385966E-1,3.3536576E-2,6.4E1,6.802034E-2,5.5E1,2.0089796E-1,-3.9299082E-2,1.8474048E-2,1.1028279E-1,-3.0307813E-2],"split_indices":[3,7,0,6,0,22,15,0,24,7,0,4,0,4,0,0,0,0,0],"split_type":[0,0,0,0,0,0,0,0,0,0,0,0,0,0,0,0,0,0,0],"sum_hessian":[4.6542797E1,2.0676733E1,2.5866066E1,1.9172832E1,1.5038996E0,5.6987824E0,1.34740505E1,1.1115534E0,4.5872293E0,1.165394E1,1.8201103E0,3.514042E0,1.0731874E0,3.326183E0,8.327757E0,2.4404063E0,1.0736356E0,2.2789464E0,1.0472366E0],"tree_param":{"num_deleted":"0","num_feature":"27","num_nodes":"19","size_leaf_vector":"1"}},{"base_weights":[-3.3237934E-1,2.2537628E-1,-5.077755E-2,-4.1071825E-2,6.2198764E-1,-2.925565E-2,8.8983846E-1,1.1891841E0,7.823396E-3,1.8579397E-1,8.476867E-3],"categories":[],"categories_nodes":[],"categories_segments":[],"categories_sizes":[],"default_left":[0,0,0,0,0,0,0,0,0,0,0],"id":77,"left_children":[1,3,-1,-1,5,-1,7,9,-1,-1,-1],"loss_changes":[3.879321E0,2.7529283E0,0E0,0E0,1.8514245E0,0E0,1.1876359E0,2.634756E0,0E0,0E0,0E0],"parents":[2147483647,0,0,1,1,4,4,6,6,7,7],"right_children":[2,4,-1,-1,6,-1,8,10,-1,-1,-1],"split_conditions":[3.1E1,1.9832471E-1,-5.077755E-2,-4.1071825E-2,3.1E1,-2.925565E-2,8.1E1,3.960335E-1,7.823396E-3,1.8579397E-1,8.476867E-3],"split_indices":[3,24,0,0,4,0,4,24,0,0,0],"split_type":[0,0,0,0,0,0,0,0,0,0,0],"sum_hessian":[3.7484623E1,8.899491E0,2.858513E1,3.4041953E0,5.495296E0,1.2239681E0,4.271328E0,2.7805471E0,1.4907807E0,1.3068987E0,1.4736483E0],"tree_param":{"num_deleted":"0","num_feature":"27","num_nodes":"11","size_leaf_vector":"1"}},{"base_weights":[-4.8312286E-1,-5.1032253E-2,5.0091413E-3],"categories":[],"categories_nodes":[],"categories_segments":[],"categories_sizes":[],"default_left":[0,0,0],"id":78,"left_children":[1,-1,-1],"loss_changes":[5.42428E-1,0E0,0E0],"parents":[2147483647,0,0],"right_children":[2,-1,-1],"split_conditions":[7.785169E-1,-5.1032253E-2,5.0091413E-3],"split_indices":[23,0,0],"split_type":[0,0,0],"sum_hessian":[3.4637863E1,3.2997562E1,1.6402977E0],"tree_param":{"num_deleted":"0","num_feature":"27","num_nodes":"3","size_leaf_vector":"1"}},{"base_weights":[1.5079513E0,-4.3139923E-1,1.749715E-1,2.3827811E-3,-4.9483012E-2],"categories":[],"categories_nodes":[],"categories_segments":[],"categories_sizes":[],"default_left":[0,0,0,0,0],"id":79,"left_children":[1,3,-1,-1,-1],"loss_changes":[5.8565186E1,4.2959404E-1,0E0,0E0,0E0],"parents":[2147483647,0,0,1,1],"right_children":[2,4,-1,-1,-1],"split_conditions":[1.05E2,1.4412417E-2,1.749715E-1,2.3827811E-3,-4.9483012E-2],"split_indices":[4,23,0,0,0],"split_type":[0,0,0,0,0],"sum_hessian":[1.2229863E2,1.3469146E1,1.0882948E2,1.7236091E0,1.1745537E1],"tree_param":{"num_deleted":"0","num_feature":"27","num_nodes":"5","size_leaf_vector":"1"}},{"base_weights":[-4.1332E-2,7.1727175E-1,-5.030128E-2,5.4420304E-2,1.0239019E0,-2.2653033E-1,7.134259E-2,1.339392E0,1.2153838E-1,-4.0302157E-2,2.2758557E-2,2.0308273E-1,6.6373587E-1,6.928059E-2,-3.4772918E-2,-8.0022596E-2,1.2609081E-1,2.1457564E-2,-3.0413428E-2],"categories":[],"categories_nodes":[],"categories_segments":[],"categories_sizes":[],"default_left":[0,0,0,0,0,0,0,0,0,0,0,0,0,0,0,0,0,0,0],"id":80,"left_children":[1,3,-1,5,7,9,-1,11,13,-1,-1,-1,15,-1,-1,17,-1,-1,-1],"loss_changes":[1.415255E1,3.0561905E0,0E0,1.2537369E0,2.8013945E0,4.8400846E-1,0E0,2.2095833E0,1.2588227E0,0E0,0E0,0E0,2.4713182E0,0E0,0E0,2.8426373E-1,0E0,0E0,0E0],"parents":[2147483647,0,0,1,1,3,3,4,4,5,5,7,7,8,8,12,12,15,15],"right_children":[2,4,-1,6,8,10,-1,12,14,-1,-1,-1,16,-1,-1,18,-1,-1,-1],"split_conditions":[3.6E1,5.701754E-1,-5.030128E-2,4.1340232E-1,6.296296E-1,7.2E1,7.134259E-2,6.403509E-1,6.6917294E-1,-4.0302157E-2,2.2758557E-2,2.0308273E-1,2.1088938E-1,6.928059E-2,-3.4772918E-2,6.3829786E-1,1.2609081E-1,2.1457564E-2,-3.0413428E-2],"split_indices":[3,12,0,24,21,4,0,18,14,0,0,0,23,0,0,8,0,0,0],"split_type":[0,0,0,0,0,0,0,0,0,0,0,0,0,0,0,0,0,0,0],"sum_hessian":[3.837882E1,1.4310738E1,2.4068079E1,4.8986535E0,9.412085E0,3.8945594E0,1.0040942E0,6.614993E0,2.7970912E0,2.8855932E0,1.0089663E0,2.2780404E0,4.336953E0,1.0466211E0,1.7504702E0,2.31709E0,2.019863E0,1.0194966E0,1.2975935E0],"tree_param":{"num_deleted":"0","num_feature":"27","num_nodes":"19","size_leaf_vector":"1"}},{"base_weights":[-2.908389E-1,2.826758E-1,-5.0387677E-2,6.7700636E-1,-2.394862E-1,2.3691933E-1,1.1821075E-1,-4.0587954E-2,2.2154847E-2,8.973003E-2,-3.6628753E-2],"categories":[],"categories_nodes":[],"categories_segments":[],"categories_sizes":[],"default_left":[0,0,0,0,0,0,0,0,0,0,0],"id":81,"left_children":[1,3,-1,5,7,9,-1,-1,-1,-1,-1],"loss_changes":[4.544641E0,2.3034275E0,0E0,1.0950758E0,4.8984018E-1,2.1437595E0,0E0,0E0,0E0,0E0,0E0],"parents":[2147483647,0,0,1,1,3,3,4,4,5,5],"right_children":[2,4,-1,6,8,10,-1,-1,-1,-1,-1],"split_conditions":[7.1E1,5.185185E-1,-5.0387677E-2,5.185185E-1,6.447401E-1,4.6932742E-2,1.1821075E-1,-4.0587954E-2,2.2154847E-2,8.973003E-2,-3.6628753E-2],"split_indices":[4,9,0,21,24,24,0,0,0,0,0],"split_type":[0,0,0,0,0,0,0,0,0,0,0],"sum_hessian":[3.5030407E1,9.399453E0,2.5630953E1,5.1862864E0,4.2131667E0,3.5565612E0,1.6297255E0,3.1837456E0,1.0294213E0,1.4650731E0,2.0914881E0],"tree_param":{"num_deleted":"0","num_feature":"27","num_nodes":"11","size_leaf_vector":"1"}},{"base_weights":[-4.2548198E-1,-3.314679E-2,-4.7587943E-1,6.1350215E-2,-3.903344E-2,-7.059306E-2,-5.0593406E-2,-3.0033752E-2,2.3062069E-2],"categories":[],"categories_nodes":[],"categories_segments":[],"categories_sizes":[],"default_left":[0,0,0,0,0,0,0,0,0],"id":82,"left_children":[1,3,5,-1,-1,7,-1,-1,-1],"loss_changes":[6.8294287E-1,1.41685E0,3.4481144E-1,0E0,0E0,2.989375E-1,0E0,0E0,0E0],"parents":[2147483647,0,0,1,1,2,2,5,5],"right_children":[2,4,6,-1,-1,8,-1,-1,-1],"split_conditions":[2.015E3,6.6E1,9E0,6.1350215E-2,-3.903344E-2,8E0,-5.0593406E-2,-3.0033752E-2,2.3062069E-2],"split_indices":[0,4,3,0,0,1,0,0,0],"split_type":[0,0,0,0,0,0,0,0,0],"sum_hessian":[3.433748E1,4.0974298E0,3.024005E1,1.2026227E0,2.8948073E0,2.3188748E0,2.7921173E1,1.317153E0,1.001722E0],"tree_param":{"num_deleted":"0","num_feature":"27","num_nodes":"9","size_leaf_vector":"1"}},{"base_weights":[-5.091074E-1],"categories":[],"categories_nodes":[],"categories_segments":[],"categories_sizes":[],"default_left":[0],"id":83,"left_children":[-1],"loss_changes":[0E0],"parents":[2147483647],"right_children":[-1],"split_conditions":[-5.091074E-2],"split_indices":[0],"split_type":[0],"sum_hessian":[3.3841293E1],"tree_param":{"num_deleted":"0","num_feature":"27","num_nodes":"1","size_leaf_vector":"1"}},{"base_weights":[-4.5222458E-1,-4.7915697E-1,1.3722192E-2,-2.3458664E-1,-5.0631173E-2,-3.862181E-2,9.569318E-3],"categories":[],"categories_nodes":[],"categories_segments":[],"categories_sizes":[],"default_left":[0,0,0,0,0,0,0],"id":84,"left_children":[1,3,-1,5,-1,-1,-1],"loss_changes":[6.1760235E-1,1.0347748E-1,0E0,2.9776347E-1,0E0,0E0,0E0],"parents":[2147483647,0,0,1,1,3,3],"right_children":[2,4,-1,6,-1,-1,-1],"split_conditions":[9.0225565E-1,2.015E3,1.3722192E-2,1.1E1,-5.0631173E-2,-3.862181E-2,9.569318E-3],"split_indices":[11,0,0,1,0,0,0],"split_type":[0,0,0,0,0,0,0],"sum_hessian":[3.3761814E1,3.2465538E1,1.2962767E0,4.207685E0,2.8257854E1,2.7676783E0,1.4400069E0],"tree_param":{"num_deleted":"0","num_feature":"27","num_nodes":"7","size_leaf_vector":"1"}},{"base_weights":[-4.4916067E-1,-2.53656E-1,-5.036853E-2,-4.6039518E-2,6.688802E-2],"categories":[],"categories_nodes":[],"categories_segments":[],"categories_sizes":[],"default_left":[0,0,0,0,0],"id":85,"left_children":[1,3,-1,-1,-1],"loss_changes":[2.2747946E-1,2.078227E0,0E0,0E0,0E0],"parents":[2147483647,0,0,1,1],"right_children":[2,4,-1,-1,-1],"split_conditions":[5.321508E-2,8E0,-5.036853E-2,-4.6039518E-2,6.688802E-2],"split_indices":[23,1,0,0,0],"split_type":[0,0,0,0,0],"sum_hessian":[3.2325348E1,8.281864E0,2.4043484E1,7.17492E0,1.1069444E0],"tree_param":{"num_deleted":"0","num_feature":"27","num_nodes":"5","size_leaf_vector":"1"}},{"base_weights":[-5.09569E-1],"categories":[],"categories_nodes":[],"categories_segments":[],"categories_sizes":[],"default_left":[0],"id":86,"left_children":[-1],"loss_changes":[0E0],"parents":[2147483647],"right_children":[-1],"split_conditions":[-5.09569E-2],"split_indices":[0],"split_type":[0],"sum_hessian":[3.455548E1],"tree_param":{"num_deleted":"0","num_feature":"27","num_nodes":"1","size_leaf_vector":"1"}},{"base_weights":[-4.8091003E-1,2.2997033E-2,-5.0873857E-2],"categories":[],"categories_nodes":[],"categories_segments":[],"categories_sizes":[],"default_left":[0,0,0],"id":87,"left_children":[1,-1,-1],"loss_changes":[8.1314945E-1,0E0,0E0],"parents":[2147483647,0,0],"right_children":[2,-1,-1],"split_conditions":[3.3082706E-1,2.2997033E-2,-5.0873857E-2],"split_indices":[14,0,0],"split_type":[0,0,0],"sum_hessian":[3.41899E1,1.0143555E0,3.317554E1],"tree_param":{"num_deleted":"0","num_feature":"27","num_nodes":"3","size_leaf_vector":"1"}},{"base_weights":[-2.8509495E-1,3.5467622E-1,-5.049625E-2,1.4067496E0,-4.3952E-2,8.901312E-3,2.0223637E-1],"categories":[],"categories_nodes":[],"categories_segments":[],"categories_sizes":[],"default_left":[0,0,0,0,0,0,0],"id":88,"left_children":[1,3,-1,5,-1,-1,-1],"loss_changes":[5.13365E0,8.63638E0,0E0,3.3617258E0,0E0,0E0,0E0],"parents":[2147483647,0,0,1,1,3,3],"right_children":[2,4,-1,6,-1,-1,-1],"split_conditions":[5.6390977E-1,1E2,-5.049625E-2,2.018E3,-4.3952E-2,8.901312E-3,2.0223637E-1],"split_indices":[11,4,0,0,0,0,0],"split_type":[0,0,0,0,0,0,0],"sum_hessian":[3.4222363E1,8.596146E0,2.5626217E1,3.3659616E0,5.2301836E0,1.4362427E0,1.929719E0],"tree_param":{"num_deleted":"0","num_feature":"27","num_nodes":"7","size_leaf_vector":"1"}},{"base_weights":[-5.087054E-1],"categories":[],"categories_nodes":[],"categories_segments":[],"categories_sizes":[],"default_left":[0],"id":89,"left_children":[-1],"loss_changes":[0E0],"parents":[2147483647],"right_children":[-1],"split_conditions":[-5.0870538E-2],"split_indices":[0],"split_type":[0],"sum_hessian":[3.3441406E1],"tree_param":{"num_deleted":"0","num_feature":"27","num_nodes":"1","size_leaf_vector":"1"}},{"base_weights":[-2.9161128E-1,1.1070152E-1,-3.9496863E-1,1.9644263E-1,-4.468033E-1,-3.1335782E-2,7.2247274E-2,-4.7613505E-1,1.3520598E-2,-1.0571763E-3,-5.0757777E-2],"categories":[],"categories_nodes":[],"categories_segments":[],"categories_sizes":[],"default_left":[0,0,0,0,0,0,0,0,0,0,0],"id":90,"left_children":[1,-1,3,5,7,-1,-1,9,-1,-1,-1],"loss_changes":[5.6402855E0,0E0,1.1378164E0,1.1528708E0,6.072135E-1,0E0,0E0,4.4101763E-1,0E0,0E0,0E0],"parents":[2147483647,0,0,2,2,3,3,4,4,7,7],"right_children":[2,-1,4,6,8,-1,-1,10,-1,-1,-1],"split_conditions":[1.9E1,1.1070152E-1,1E1,5.925926E-1,7.9095834E-1,-3.1335782E-2,7.2247274E-2,2E0,1.3520598E-2,-1.0571763E-3,-5.0757777E-2],"split_indices":[4,0,3,9,5,0,0,1,0,0,0],"split_type":[0,0,0,0,0,0,0,0,0,0,0],"sum_hessian":[3.4992725E1,1.7397647E0,3.325296E1,2.4548125E0,3.079815E1,1.4519532E0,1.0028592E0,2.9493658E1,1.3044918E0,1.9504298E0,2.7543228E1],"tree_param":{"num_deleted":"0","num_feature":"27","num_nodes":"11","size_leaf_vector":"1"}},{"base_weights":[-4.8114282E-1,-5.0773304E-2,-1.5040533E-1,-3.5238914E-2,2.182415E-2],"categories":[],"categories_nodes":[],"categories_segments":[],"categories_sizes":[],"default_left":[0,0,0,0,0],"id":91,"left_children":[1,-1,3,-1,-1],"loss_changes":[2.3197746E-1,0E0,3.769815E-1,0E0,0E0],"parents":[2147483647,0,0,2,2],"right_children":[2,-1,4,-1,-1],"split_conditions":[2.023E3,-5.0773304E-2,7.105263E-1,-3.5238914E-2,2.182415E-2],"split_indices":[0,0,15,0,0],"split_type":[0,0,0,0,0],"sum_hessian":[3.4061462E1,3.1031475E1,3.0299869E0,1.9859656E0,1.0440214E0],"tree_param":{"num_deleted":"0","num_feature":"27","num_nodes":"5","size_leaf_vector":"1"}},{"base_weights":[4.1697997E-1,1.2869763E0,-5.03209E-2,1.3887708E0,-3.144976E-2,5.2173877E-1,1.5756134E0,1.5168197E-1,-2.0724629E-1,8.1343615E-1,1.6999454E0,2.1320166E-2,-4.0215656E-2,-2.949725E-2,1.2469172E0,8.7552094E-1,1.8515766E-1,1.7022216E-1,1.5233963E-2,1.1516465E-1,1.0738823E-2],"categories":[],"categories_nodes":[],"categories_segments":[],"categories_sizes":[],"default_left":[0,0,0,0,0,0,0,0,0,0,0,0,0,0,0,0,0,0,0,0,0],"id":92,"left_children":[1,3,-1,5,-1,7,9,-1,11,13,15,-1,-1,-1,17,19,-1,-1,-1,-1,-1],"loss_changes":[4.158755E1,4.767826E0,0E0,3.2545357E0,0E0,4.6351876E0,5.321655E-1,0E0,4.3957478E-1,2.6508796E0,4.360695E-1,0E0,0E0,0E0,1.5383587E0,8.2091475E-1,0E0,0E0,0E0,0E0,0E0],"parents":[2147483647,0,0,1,1,3,3,5,5,6,6,8,8,9,9,10,10,14,14,15,15],"right_children":[2,4,-1,6,-1,8,10,-1,12,14,16,-1,-1,-1,18,20,-1,-1,-1,-1,-1],"split_conditions":[3.4E1,7.017544E-1,-5.03209E-2,4E0,-3.144976E-2,3.7817195E-2,6.5413535E-1,1.5168197E-1,5.0212765E-1,2.622567E-1,5.263158E-1,2.1320166E-2,-4.0215656E-2,-2.949725E-2,6.6917294E-1,5.6E1,1.8515766E-1,1.7022216E-1,1.5233963E-2,1.1516465E-1,1.0738823E-2],"split_indices":[3,7,0,1,0,22,6,0,19,24,7,0,0,0,14,4,0,0,0,0,0],"split_type":[0,0,0,0,0,0,0,0,0,0,0,0,0,0,0,0,0,0,0,0,0],"sum_hessian":[5.0139046E1,2.5567524E1,2.457152E1,2.4164383E1,1.4031423E0,4.9564896E0,1.9207893E1,1.6387843E0,3.3177052E0,3.7517087E0,1.5456184E1,1.0211345E0,2.2965708E0,1.1445718E0,2.607137E0,3.453481E0,1.2002703E1,1.4491878E0,1.1579493E0,2.1730428E0,1.2804381E0],"tree_param":{"num_deleted":"0","num_feature":"27","num_nodes":"21","size_leaf_vector":"1"}},{"base_weights":[-2.805731E-1,2.912631E-1,-5.031346E-2,-1.7053519E-1,9.684563E-1,-4.4152018E-2,6.784674E-2,1.5194558E-1,-2.8724689E-2],"categories":[],"categories_nodes":[],"categories_segments":[],"categories_sizes":[],"default_left":[0,0,0,0,0,0,0,0,0],"id":93,"left_children":[1,3,-1,5,7,-1,-1,-1,-1],"loss_changes":[4.53994E0,3.3877358E0,0E0,1.9047426E0,3.4307919E0,0E0,0E0,0E0,0E0],"parents":[2147483647,0,0,1,1,3,3,4,4],"right_children":[2,4,-1,6,8,-1,-1,-1,-1],"split_conditions":[3.1E1,9E0,-5.031346E-2,5.8635134E-1,6.8421054E-1,-4.4152018E-2,6.784674E-2,1.5194558E-1,-2.8724689E-2],"split_indices":[3,1,0,24,11,0,0,0,0],"split_type":[0,0,0,0,0,0,0,0,0],"sum_hessian":[3.3520622E1,9.304783E0,2.4215837E1,5.9770365E0,3.3277464E0,4.8946986E0,1.0823376E0,2.1668806E0,1.1608658E0],"tree_param":{"num_deleted":"0","num_feature":"27","num_nodes":"9","size_leaf_vector":"1"}},{"base_weights":[-4.8086008E-1,-5.084746E-2,9.313145E-5],"categories":[],"categories_nodes":[],"categories_segments":[],"categories_sizes":[],"default_left":[0,0,0],"id":94,"left_children":[1,-1,-1],"loss_changes":[4.668007E-1,0E0,0E0],"parents":[2147483647,0,0],"right_children":[2,-1,-1],"split_conditions":[7.785169E-1,-5.084746E-2,9.313145E-5],"split_indices":[5,0,0],"split_type":[0,0,0],"sum_hessian":[3.4050484E1,3.2152252E1,1.8982332E0],"tree_param":{"num_deleted":"0","num_feature":"27","num_nodes":"3","size_leaf_vector":"1"}},{"base_weights":[1.3125288E0,-4.286609E-1,1.4986028E-1,3.426717E-3,-4.9664117E-2],"categories":[],"categories_nodes":[],"categories_segments":[],"categories_sizes":[],"default_left":[0,0,0,0,0],"id":95,"left_children":[1,3,-1,-1,-1],"loss_changes":[4.367839E1,4.4507933E-1,0E0,0E0,0E0],"parents":[2147483647,0,0,1,1],"right_children":[2,4,-1,-1,-1],"split_conditions":[3.9E1,1.4412417E-2,1.4986028E-1,3.426717E-3,-4.9664117E-2],"split_indices":[3,5,0,0,0],"split_type":[0,0,0,0,0],"sum_hessian":[1.318312E2,1.2602198E1,1.19229004E2,1.6771518E0,1.0925046E1],"tree_param":{"num_deleted":"0","num_feature":"27","num_nodes":"5","size_leaf_vector":"1"}},{"base_weights":[5.8717944E-2,7.795396E-1,-4.997583E-2,-3.4485895E-2,9.2437553E-1,-3.1493016E-2,1.0636116E0,1.1899003E0,1.5811948E-3,6.5394336E-1,1.5457009E0,-1.3684473E-2,1.1889199E-1,1.9365093E-1,5.0074536E-2],"categories":[],"categories_nodes":[],"categories_segments":[],"categories_sizes":[],"default_left":[0,0,0,0,0,0,0,0,0,0,0,0,0,0,0],"id":96,"left_children":[1,3,-1,-1,5,-1,7,9,-1,11,13,-1,-1,-1,-1],"loss_changes":[1.6836233E1,3.2869186E0,0E0,0E0,3.1679459E0,0E0,1.9644718E0,1.5373192E0,0E0,3.1514566E0,2.0104809E0,0E0,0E0,0E0,0E0],"parents":[2147483647,0,0,1,1,4,4,6,6,7,7,9,9,10,10],"right_children":[2,4,-1,-1,6,-1,8,10,-1,12,14,-1,-1,-1,-1],"split_conditions":[1.04E2,4E-1,-4.997583E-2,-3.4485895E-2,4.385965E-1,-3.1493016E-2,7.344173E-1,2.1088938E-1,1.5811948E-3,6.8421054E-1,6.5413535E-1,-1.3684473E-2,1.1889199E-1,1.9365093E-1,5.0074536E-2],"split_indices":[4,10,0,0,15,0,23,23,0,6,6,0,0,0,0],"split_type":[0,0,0,0,0,0,0,0,0,0,0,0,0,0,0],"sum_hessian":[3.9854977E1,1.7225851E1,2.2629126E1,1.808097E0,1.5417753E1,1.4297816E0,1.3987971E1,1.236235E1,1.6256216E0,6.0647383E0,6.2976117E0,2.7475648E0,3.3171735E0,3.9624696E0,2.3351421E0],"tree_param":{"num_deleted":"0","num_feature":"27","num_nodes":"15","size_leaf_vector":"1"}},{"base_weights":[-3.9772606E-1,2.6937371E-1,-4.7689956E-1,7.361718E-2,-3.280215E-2,-5.0447684E-2,-2.8094235E-1,1.5540822E-2,-4.1836407E-2],"categories":[],"categories_nodes":[],"categories_segments":[],"categories_sizes":[],"default_left":[0,0,0,0,0,0,0,0,0],"id":97,"left_children":[1,3,5,-1,-1,-1,7,-1,-1],"loss_changes":[1.9910002E0,1.4629798E0,3.057146E-2,0E0,0E0,0E0,4.3621346E-1,0E0,0E0],"parents":[2147483647,0,0,1,1,2,2,6,6],"right_children":[2,4,6,-1,-1,-1,8,-1,-1],"split_conditions":[1.3E1,5.555556E-1,1.1E1,7.361718E-2,-3.280215E-2,-5.0447684E-2,5.4385966E-1,1.5540822E-2,-4.1836407E-2],"split_indices":[3,21,1,0,0,0,12,0,0],"split_type":[0,0,0,0,0,0,0,0,0],"sum_hessian":[3.426421E1,3.3802862E0,3.0883924E1,1.7671509E0,1.6131352E0,2.569361E1,5.190315E0,1.2117617E0,3.9785533E0],"tree_param":{"num_deleted":"0","num_feature":"27","num_nodes":"9","size_leaf_vector":"1"}},{"base_weights":[-4.44965E-1,-9.470321E-2,-5.0347604E-2,7.132446E-2,-4.1730445E-2],"categories":[],"categories_nodes":[],"categories_segments":[],"categories_sizes":[],"default_left":[0,0,0,0,0],"id":98,"left_children":[1,3,-1,-1,-1],"loss_changes":[6.078396E-1,1.8120006E0,0E0,0E0,0E0],"parents":[2147483647,0,0,1,1],"right_children":[2,4,-1,-1,-1],"split_conditions":[2.4E1,3.8925845E-2,-5.0347604E-2,7.132446E-2,-4.1730445E-2],"split_indices":[3,22,0,0,0],"split_type":[0,0,0,0,0],"sum_hessian":[3.0985687E1,4.8100514E0,2.6175636E1,1.0270102E0,3.7830412E0],"tree_param":{"num_deleted":"0","num_feature":"27","num_nodes":"5","size_leaf_vector":"1"}},{"base_weights":[-4.7465903E-1,-2.432311E-1,-5.0332583E-2,-4.04903E-2,2.2883862E-2],"categories":[],"categories_nodes":[],"categories_segments":[],"categories_sizes":[],"default_left":[0,0,0,0,0],"id":99,"left_children":[1,3,-1,-1,-1],"loss_changes":[8.798027E-2,5.0712806E-1,0E0,0E0,0E0],"parents":[2147483647,0,0,1,1],"right_children":[2,4,-1,-1,-1],"split_conditions":[4.9624062E-1,4.6616542E-1,-5.0332583E-2,-4.04903E-2,2.2883862E-2],"split_indices":[14,14,0,0,0],"split_type":[0,0,0,0,0],"sum_hessian":[3.0714785E1,4.430666E0,2.6284119E1,3.4063568E0,1.0243092E0],"tree_param":{"num_deleted":"0","num_feature":"27","num_nodes":"5","size_leaf_vector":"1"}},{"base_weights":[-4.4641125E-1,-4.7474554E-1,1.2332287E-2,-2.8658983E-1,-5.0257504E-2,-4.266278E-2,2.240536E-2],"categories":[],"categories_nodes":[],"categories_segments":[],"categories_sizes":[],"default_left":[0,0,0,0,0,0,0],"id":100,"left_children":[1,3,-1,5,-1,-1,-1],"loss_changes":[5.8796835E-1,2.0638943E-2,0E0,5.5174375E-1,0E0,0E0,0E0],"parents":[2147483647,0,0,1,1,3,3],"right_children":[2,4,-1,6,-1,-1,-1],"split_conditions":[9.0225565E-1,5.9E1,1.2332287E-2,5.6E1,-5.0257504E-2,-4.266278E-2,2.240536E-2],"split_indices":[11,4,0,4,0,0,0],"split_type":[0,0,0,0,0,0,0],"sum_hessian":[3.1795685E1,3.0448147E1,1.3475368E0,5.378962E0,2.5069185E1,4.350435E0,1.028527E0],"tree_param":{"num_deleted":"0","num_feature":"27","num_nodes":"7","size_leaf_vector":"1"}},{"base_weights":[-4.4296163E-1,1.1853115E-1,-5.0433386E-2,7.2309375E-2,-3.4429286E-2],"categories":[],"categories_nodes":[],"categories_segments":[],"categories_sizes":[],"default_left":[0,0,0,0,0],"id":101,"left_children":[1,3,-1,-1,-1],"loss_changes":[1.1350408E0,1.3357815E0,0E0,0E0,0E0],"parents":[2147483647,0,0,1,1],"right_children":[2,4,-1,-1,-1],"split_conditions":[9E0,4.814815E-1,-5.0433386E-2,7.2309375E-2,-3.4429286E-2],"split_indices":[3,9,0,0,0],"split_type":[0,0,0,0,0],"sum_hessian":[3.0203127E1,2.8842103E0,2.7318916E1,1.0067693E0,1.877441E0],"tree_param":{"num_deleted":"0","num_feature":"27","num_nodes":"5","size_leaf_vector":"1"}},{"base_weights":[-4.7739032E-1,-1.5369508E-1,-5.0523844E-2,-3.5580974E-2,2.3554184E-2],"categories":[],"categories_nodes":[],"categories_segments":[],"categories_sizes":[],"default_left":[0,0,0,0,0],"id":102,"left_children":[1,3,-1,-1,-1],"loss_changes":[2.2535753E-1,4.0635923E-1,0E0,0E0,0E0],"parents":[2147483647,0,0,1,1],"right_children":[2,4,-1,-1,-1],"split_conditions":[2E0,6.425532E-1,-5.0523844E-2,-3.5580974E-2,2.3554184E-2],"split_indices":[1,19,0,0,0],"split_type":[0,0,0,0,0],"sum_hessian":[3.2614487E1,3.1000266E0,2.951446E1,2.097013E0,1.0030136E0],"tree_param":{"num_deleted":"0","num_feature":"27","num_nodes":"5","size_leaf_vector":"1"}},{"base_weights":[-4.7519633E-1,2.2831367E-2,-5.057152E-2],"categories":[],"categories_nodes":[],"categories_segments":[],"categories_sizes":[],"default_left":[0,0,0],"id":103,"left_children":[1,-1,-1],"loss_changes":[8.0180407E-1,0E0,0E0],"parents":[2147483647,0,0],"right_children":[2,-1,-1],"split_conditions":[3.5964912E-1,2.2831367E-2,-5.057152E-2],"split_indices":[12,0,0],"split_type":[0,0,0],"sum_hessian":[3.096701E1,1.0180572E0,2.9948954E1],"tree_param":{"num_deleted":"0","num_feature":"27","num_nodes":"3","size_leaf_vector":"1"}},{"base_weights":[-3.2593834E-1,1.9144632E-1,-5.008427E-2,9.070349E-1,-4.305509E-2,-3.2284815E-2,1.5695046E-1],"categories":[],"categories_nodes":[],"categories_segments":[],"categories_sizes":[],"default_left":[0,0,0,0,0,0,0],"id":104,"left_children":[1,3,-1,5,-1,-1,-1],"loss_changes":[3.025917E0,4.3535533E0,0E0,4.142406E0,0E0,0E0,0E0],"parents":[2147483647,0,0,1,1,3,3],"right_children":[2,4,-1,6,-1,-1,-1],"split_conditions":[3E1,5.6390977E-1,-5.008427E-2,4.2105263E-1,-4.305509E-2,-3.2284815E-2,1.5695046E-1],"split_indices":[3,11,0,11,0,0,0],"split_type":[0,0,0,0,0,0,0],"sum_hessian":[3.137862E1,7.903801E0,2.347482E1,3.4622862E0,4.441515E0,1.3915384E0,2.0707479E0],"tree_param":{"num_deleted":"0","num_feature":"27","num_nodes":"7","size_leaf_vector":"1"}},{"base_weights":[-5.0612247E-1],"categories":[],"categories_nodes":[],"categories_segments":[],"categories_sizes":[],"default_left":[0],"id":105,"left_children":[-1],"loss_changes":[0E0],"parents":[2147483647],"right_children":[-1],"split_conditions":[-5.061225E-2],"split_indices":[0],"split_type":[0],"sum_hessian":[3.1216763E1],"tree_param":{"num_deleted":"0","num_feature":"27","num_nodes":"1","size_leaf_vector":"1"}},{"base_weights":[-2.7364808E-1,3.8495058E-1,-4.6549037E-1,1.3022133E0,-2.5800854E-1,-7.40645E-2,-5.0095912E-2,1.7197995E-1,1.902632E-2,2.1469278E-2,-4.138302E-2,2.3302717E-2,-3.0305952E-2],"categories":[],"categories_nodes":[],"categories_segments":[],"categories_sizes":[],"default_left":[0,0,0,0,0,0,0,0,0,0,0,0,0],"id":106,"left_children":[1,3,5,7,9,11,-1,-1,-1,-1,-1,-1,-1],"loss_changes":[4.4117455E0,5.115503E0,3.2935238E-1,1.3002996E0,5.0126016E-1,3.073658E-1,0E0,0E0,0E0,0E0,0E0,0E0,0E0],"parents":[2147483647,0,0,1,1,2,2,3,3,4,4,5,5],"right_children":[2,4,6,8,10,12,-1,-1,-1,-1,-1,-1,-1],"split_conditions":[2.5E1,2.6666668E-1,2E0,5.8E1,3.8925845E-2,5.56391E-1,-5.0095912E-2,1.7197995E-1,1.902632E-2,2.1469278E-2,-4.138302E-2,2.3302717E-2,-3.0305952E-2],"split_indices":[3,10,1,4,22,14,0,0,0,0,0,0,0],"split_type":[0,0,0,0,0,0,0,0,0,0,0,0,0],"sum_hessian":[3.249943E1,7.104146E0,2.5395285E1,2.505042E0,4.599104E0,2.3665588E0,2.3028725E1,1.4237205E0,1.0813215E0,1.0465312E0,3.5525727E0,1.0033789E0,1.36318E0],"tree_param":{"num_deleted":"0","num_feature":"27","num_nodes":"13","size_leaf_vector":"1"}},{"base_weights":[-5.066289E-1],"categories":[],"categories_nodes":[],"categories_segments":[],"categories_sizes":[],"default_left":[0],"id":107,"left_children":[-1],"loss_changes":[0E0],"parents":[2147483647],"right_children":[-1],"split_conditions":[-5.0662886E-2],"split_indices":[0],"split_type":[0],"sum_hessian":[3.1030125E1],"tree_param":{"num_deleted":"0","num_feature":"27","num_nodes":"1","size_leaf_vector":"1"}},{"base_weights":[2.9183885E-1,9.989708E-1,-4.998697E-2,1.1141307E0,8.200892E-2,1.201545E0,8.8918064E-4,-3.6016658E-2,6.9763474E-2,1.5357583E0,8.636723E-1,1.7274389E-1,1.2017798E-2,-1.1160362E-1,1.0939791E0,-3.3613443E-2,2.0099143E-2,1.3616571E-1,4.058702E-2],"categories":[],"categories_nodes":[],"categories_segments":[],"categories_sizes":[],"default_left":[0,0,0,0,0,0,0,0,0,0,0,0,0,0,0,0,0,0,0],"id":108,"left_children":[1,3,-1,5,7,9,-1,-1,-1,11,13,-1,-1,15,17,-1,-1,-1,-1],"loss_changes":[2.773943E1,2.6578178E0,0E0,2.2162952E0,1.3358482E0,1.0848713E0,0E0,0E0,0E0,2.3565006E0,3.0204163E0,0E0,0E0,3.0426362E-1,1.3871002E0,0E0,0E0,0E0,0E0],"parents":[2147483647,0,0,1,1,3,3,4,4,5,5,9,9,10,10,13,13,14,14],"right_children":[2,4,-1,6,8,10,-1,-1,-1,12,14,-1,-1,16,18,-1,-1,-1,-1],"split_conditions":[3.4E1,3.8223702E-1,-4.998697E-2,6.9298244E-1,3.1E1,2.02E3,8.8918064E-4,-3.6016658E-2,6.9763474E-2,3.0179846E-1,6.1702126E-1,1.7274389E-1,1.2017798E-2,1.8502094E-1,5.6E1,-3.3613443E-2,2.0099143E-2,1.3616571E-1,4.058702E-2],"split_indices":[3,23,0,18,3,0,0,0,0,22,13,0,0,24,4,0,0,0,0],"split_type":[0,0,0,0,0,0,0,0,0,0,0,0,0,0,0,0,0,0,0],"sum_hessian":[4.7656677E1,2.5034643E1,2.2622036E1,2.2050348E1,2.9842954E0,2.0353441E1,1.6969068E0,1.9783189E0,1.0059763E0,8.449793E0,1.1903649E1,7.248046E0,1.2017465E0,2.3724582E0,9.531191E0,1.336892E0,1.0355662E0,6.1571774E0,3.374014E0],"tree_param":{"num_deleted":"0","num_feature":"27","num_nodes":"19","size_leaf_vector":"1"}},{"base_weights":[-2.9143122E-1,2.630177E-1,-5.025779E-2,6.394447E-1,-4.106438E-2,-1.4780568E-1,1.2294711E0,-3.508544E-2,2.2330781E-2,1.9449471E-1,2.9788285E-2],"categories":[],"categories_nodes":[],"categories_segments":[],"categories_sizes":[],"default_left":[0,0,0,0,0,0,0,0,0,0,0],"id":109,"left_children":[1,3,-1,5,-1,7,9,-1,-1,-1,-1],"loss_changes":[4.3698025E0,2.9605803E0,0E0,3.5338037E0,0E0,3.7857914E-1,2.2415829E0,0E0,0E0,0E0,0E0],"parents":[2147483647,0,0,1,1,3,3,5,5,6,6],"right_children":[2,4,-1,6,-1,8,10,-1,-1,-1,-1],"split_conditions":[3.1E1,6.8421054E-1,-5.025779E-2,6.315789E-1,-4.106438E-2,6.111111E-1,6.616541E-1,-3.508544E-2,2.2330781E-2,1.9449471E-1,2.9788285E-2],"split_indices":[3,14,0,17,0,9,6,0,0,0,0],"split_type":[0,0,0,0,0,0,0,0,0,0,0],"sum_hessian":[3.519726E1,9.6394415E0,2.555782E1,6.2165594E0,3.4228818E0,2.984262E0,3.2322974E0,1.9641819E0,1.0200802E0,1.2129531E0,2.0193446E0],"tree_param":{"num_deleted":"0","num_feature":"27","num_nodes":"11","size_leaf_vector":"1"}},{"base_weights":[-4.7608155E-1,-5.05849E-2,5.728997E-3],"categories":[],"categories_nodes":[],"categories_segments":[],"categories_sizes":[],"default_left":[0,0,0],"id":110,"left_children":[1,-1,-1],"loss_changes":[5.4544926E-1,0E0,0E0],"parents":[2147483647,0,0],"right_children":[2,-1,-1],"split_conditions":[7.785169E-1,-5.05849E-2,5.728997E-3],"split_indices":[22,0,0],"split_type":[0,0,0],"sum_hessian":[3.1529167E1,2.9911413E1,1.617755E0],"tree_param":{"num_deleted":"0","num_feature":"27","num_nodes":"3","size_leaf_vector":"1"}},{"base_weights":[1.1608738E0],"categories":[],"categories_nodes":[],"categories_segments":[],"categories_sizes":[],"default_left":[0],"id":111,"left_children":[-1],"loss_changes":[0E0],"parents":[2147483647],"right_children":[-1],"split_conditions":[1.1608738E-1],"split_indices":[0],"split_type":[0],"sum_hessian":[1.413266E2],"tree_param":{"num_deleted":"0","num_feature":"27","num_nodes":"1","size_leaf_vector":"1"}},{"base_weights":[2.6785856E-2,6.42961E-1,-4.9758937E-2,-3.488674E-2,7.707701E-1,4.023932E-1,1.2059157E0,-3.619986E-2,6.145219E-1,1.4111337E-1,3.4403548E-2,9.986788E-1,8.693623E-3,3.0896708E-2,1.2929775E-1,-3.8867723E-2,6.930412E-2],"categories":[],"categories_nodes":[],"categories_segments":[],"categories_sizes":[],"default_left":[0,0,0,0,0,0,0,0,0,0,0,0,0,0,0,0,0],"id":112,"left_children":[1,3,-1,-1,5,7,9,-1,11,-1,-1,13,15,-1,-1,-1,-1],"loss_changes":[1.3613208E1,2.721991E0,0E0,0E0,2.3126059E0,1.9984847E0,8.412647E-1,0E0,2.07298E0,0E0,0E0,7.097678E-1,1.487551E0,0E0,0E0,0E0,0E0],"parents":[2147483647,0,0,1,1,4,4,5,5,6,6,8,8,11,11,12,12],"right_children":[2,4,-1,-1,6,8,10,-1,12,-1,-1,14,16,-1,-1,-1,-1],"split_conditions":[1.04E2,4E-1,-4.9758937E-2,-3.488674E-2,2.508007E-1,2.016E3,6E-1,-3.619986E-2,5.185185E-1,1.4111337E-1,3.4403548E-2,1.5274698E-2,5.385563E-1,3.0896708E-2,1.2929775E-1,-3.8867723E-2,6.930412E-2],"split_indices":[4,10,0,0,22,0,26,0,21,0,0,24,24,0,0,0,0],"split_type":[0,0,0,0,0,0,0,0,0,0,0,0,0,0,0,0,0],"sum_hessian":[4.0142033E1,1.8351578E1,2.1790453E1,1.8974359E0,1.6454144E1,9.953033E0,6.5011096E0,2.008616E0,7.944417E0,4.736138E0,1.7649721E0,4.4648166E0,3.4796007E0,1.9484096E0,2.516407E0,2.474698E0,1.0049025E0],"tree_param":{"num_deleted":"0","num_feature":"27","num_nodes":"17","size_leaf_vector":"1"}},{"base_weights":[-3.1939256E-1,4.7613237E-2,-4.9660876E-2,7.0518225E-1,-3.3293137E-1,-1.626394E-3,1.2895925E-1,-4.5013882E-2,2.2921575E-2],"categories":[],"categories_nodes":[],"categories_segments":[],"categories_sizes":[],"default_left":[0,0,0,0,0,0,0,0,0],"id":113,"left_children":[1,3,-1,5,7,-1,-1,-1,-1],"loss_changes":[2.089282E0,3.0510454E0,0E0,1.8956313E0,6.176448E-1,0E0,0E0,0E0,0E0],"parents":[2147483647,0,0,1,1,3,3,4,4],"right_children":[2,4,-1,6,8,-1,-1,-1,-1],"split_conditions":[3.4E1,6.738113E-2,-4.9660876E-2,3.917221E-2,5.8635134E-1,-1.626394E-3,1.2895925E-1,-4.5013882E-2,2.2921575E-2],"split_indices":[3,22,0,5,24,0,0,0,0],"split_type":[0,0,0,0,0,0,0,0,0],"sum_hessian":[3.0759792E1,1.0254522E1,2.050527E1,3.446314E0,6.808208E0,1.9774055E0,1.4689085E0,5.7984786E0,1.0097291E0],"tree_param":{"num_deleted":"0","num_feature":"27","num_nodes":"9","size_leaf_vector":"1"}},{"base_weights":[-4.4303593E-1,-2.2395672E-1,-5.0014775E-2,-4.4345263E-2,3.98574E-2],"categories":[],"categories_nodes":[],"categories_segments":[],"categories_sizes":[],"default_left":[0,0,0,0,0],"id":114,"left_children":[1,3,-1,-1,-1],"loss_changes":[2.8470898E-1,1.3200953E0,0E0,0E0,0E0],"parents":[2147483647,0,0,1,1],"right_children":[2,4,-1,-1,-1],"split_conditions":[5.321508E-2,6E0,-5.0014775E-2,-4.4345263E-2,3.98574E-2],"split_indices":[5,1,0,0,0],"split_type":[0,0,0,0,0],"sum_hessian":[3.070718E1,7.367404E0,2.3339777E1,5.659576E0,1.7078284E0],"tree_param":{"num_deleted":"0","num_feature":"27","num_nodes":"5","size_leaf_vector":"1"}},{"base_weights":[-4.729686E-1,4.9902922E-3,-5.034578E-2],"categories":[],"categories_nodes":[],"categories_segments":[],"categories_sizes":[],"default_left":[0,0,0],"id":115,"left_children":[1,-1,-1],"loss_changes":[5.276151E-1,0E0,0E0],"parents":[2147483647,0,0],"right_children":[2,-1,-1],"split_conditions":[8E0,4.9902922E-3,-5.034578E-2],"split_indices":[3,0,0],"split_type":[0,0,0],"sum_hessian":[3.0520123E1,1.6465204E0,2.8873602E1],"tree_param":{"num_deleted":"0","num_feature":"27","num_nodes":"3","size_leaf_vector":"1"}},{"base_weights":[-4.7387975E-1,-5.0234128E-2,-2.572843E-1,2.2098832E-2,-4.1050754E-2],"categories":[],"categories_nodes":[],"categories_segments":[],"categories_sizes":[],"default_left":[0,0,0,0,0],"id":116,"left_children":[1,-1,3,-1,-1],"loss_changes":[6.586027E-2,0E0,5.1031053E-1,0E0,0E0],"parents":[2147483647,0,0,2,2],"right_children":[2,-1,4,-1,-1],"split_conditions":[1.1E1,-5.0234128E-2,1.1111111E-1,2.2098832E-2,-4.1050754E-2],"split_indices":[1,0,23,0,0],"split_type":[0,0,0,0,0],"sum_hessian":[3.0649063E1,2.5923367E1,4.7256966E0,1.0393122E0,3.6863842E0],"tree_param":{"num_deleted":"0","num_feature":"27","num_nodes":"5","size_leaf_vector":"1"}},{"base_weights":[-4.1400465E-1,-4.691102E-1,1.949204E-2,-1.5116304E-1,-5.0107457E-2,-3.787666E-2,7.248964E-2,2.019064E-2,-3.47337E-2],"categories":[],"categories_nodes":[],"categories_segments":[],"categories_sizes":[],"default_left":[0,0,0,0,0,0,0,0,0],"id":117,"left_children":[1,3,5,7,-1,-1,-1,-1,-1],"loss_changes":[7.8295183E-1,2.1674252E-1,1.5706418E0,3.5140795E-1,0E0,0E0,0E0,0E0,0E0],"parents":[2147483647,0,0,1,1,2,2,3,3],"right_children":[2,4,6,8,-1,-1,-1,-1,-1],"split_conditions":[3E0,2.015E3,6.666667E-1,6.6E1,-5.0107457E-2,-3.787666E-2,7.248964E-2,2.019064E-2,-3.47337E-2],"split_indices":[2,0,15,4,0,0,0,0,0],"split_type":[0,0,0,0,0,0,0,0,0],"sum_hessian":[3.1393078E1,2.7779617E1,3.6134613E0,3.0610182E0,2.47186E1,2.6054957E0,1.0079656E0,1.0828708E0,1.9781474E0],"tree_param":{"num_deleted":"0","num_feature":"27","num_nodes":"9","size_leaf_vector":"1"}},{"base_weights":[-4.7180066E-1,-1.5026796E-1,-5.0215762E-2,-3.5317495E-2,2.3267342E-2],"categories":[],"categories_nodes":[],"categories_segments":[],"categories_sizes":[],"default_left":[0,0,0,0,0],"id":118,"left_children":[1,3,-1,-1,-1],"loss_changes":[2.2274971E-1,3.97851E-1,0E0,0E0,0E0],"parents":[2147483647,0,0,1,1],"right_children":[2,4,-1,-1,-1],"split_conditions":[2E0,6.3829786E-1,-5.0215762E-2,-3.5317495E-2,2.3267342E-2],"split_indices":[1,16,0,0,0],"split_type":[0,0,0,0,0],"sum_hessian":[2.9551754E1,3.0626845E0,2.648907E1,2.052741E0,1.0099434E0],"tree_param":{"num_deleted":"0","num_feature":"27","num_nodes":"5","size_leaf_vector":"1"}},{"base_weights":[-5.0457317E-1],"categories":[],"categories_nodes":[],"categories_segments":[],"categories_sizes":[],"default_left":[0],"id":119,"left_children":[-1],"loss_changes":[0E0],"parents":[2147483647],"right_children":[-1],"split_conditions":[-5.0457317E-2],"split_indices":[0],"split_type":[0],"sum_hessian":[3.0056236E1],"tree_param":{"num_deleted":"0","num_feature":"27","num_nodes":"1","size_leaf_vector":"1"}},{"base_weights":[-3.581561E-1,5.253083E-2,-4.9931232E-2,6.2351966E-1,-4.320858E-2,-3.3081282E-2,1.1786238E-1],"categories":[],"categories_nodes":[],"categories_segments":[],"categories_sizes":[],"default_left":[0,0,0,0,0,0,0],"id":120,"left_children":[1,3,-1,5,-1,-1,-1],"loss_changes":[1.9207621E0,2.8329217E0,0E0,2.8598406E0,0E0,0E0,0E0],"parents":[2147483647,0,0,1,1,3,3],"right_children":[2,4,-1,6,-1,-1,-1],"split_conditions":[3E1,5.6390977E-1,-4.9931232E-2,4.2105263E-1,-4.320858E-2,-3.3081282E-2,1.1786238E-1],"split_indices":[3,11,0,11,0,0,0],"split_type":[0,0,0,0,0,0,0],"sum_hessian":[3.168069E1,8.264216E0,2.3416473E1,3.6624231E0,4.601794E0,1.4954703E0,2.1669528E0],"tree_param":{"num_deleted":"0","num_feature":"27","num_nodes":"7","size_leaf_vector":"1"}},{"base_weights":[-5.03306E-1],"categories":[],"categories_nodes":[],"categories_segments":[],"categories_sizes":[],"default_left":[0],"id":121,"left_children":[-1],"loss_changes":[0E0],"parents":[2147483647],"right_children":[-1],"split_conditions":[-5.0330598E-2],"split_indices":[0],"split_type":[0],"sum_hessian":[2.863189E1],"tree_param":{"num_deleted":"0","num_feature":"27","num_nodes":"1","size_leaf_vector":"1"}},{"base_weights":[-2.3563866E-1,3.766477E-1,-4.311751E-1,8.653836E-1,-4.08828E-2,-1.1078049E-1,-4.9766127E-2,-3.255292E-2,1.3733654E0,-4.2046376E-2,7.023954E-2,1.6626076E-1,2.1355212E-2],"categories":[],"categories_nodes":[],"categories_segments":[],"categories_sizes":[],"default_left":[0,0,0,0,0,0,0,0,0,0,0,0,0],"id":122,"left_children":[1,3,5,7,-1,9,-1,-1,11,-1,-1,-1,-1],"loss_changes":[4.45614E0,3.8912077E0,5.338402E-1,4.077529E0,0E0,1.8158263E0,0E0,0E0,1.1204519E0,0E0,0E0,0E0,0E0],"parents":[2147483647,0,0,1,1,2,2,3,3,5,5,8,8],"right_children":[2,4,6,8,-1,10,-1,-1,12,-1,-1,-1,-1],"split_conditions":[2.5E1,6.22807E-1,3.9E1,5.7894737E-1,-4.08828E-2,9.7E1,-4.9766127E-2,-3.255292E-2,5.8E1,-4.2046376E-2,7.023954E-2,1.6626076E-1,2.1355212E-2],"split_indices":[3,7,3,11,0,4,0,0,4,0,0,0,0],"split_type":[0,0,0,0,0,0,0,0,0,0,0,0,0],"sum_hessian":[3.4863552E1,8.214653E0,2.6648901E1,5.0011334E0,3.2135193E0,5.037855E0,2.1611046E1,1.60277E0,3.3983636E0,3.9981635E0,1.0396918E0,2.3730443E0,1.0253195E0],"tree_param":{"num_deleted":"0","num_feature":"27","num_nodes":"13","size_leaf_vector":"1"}},{"base_weights":[-4.3870363E-1,-5.0194073E-2,9.357465E-2,-3.3039376E-2,5.4113615E-2],"categories":[],"categories_nodes":[],"categories_segments":[],"categories_sizes":[],"default_left":[0,0,0,0,0],"id":123,"left_children":[1,-1,3,-1,-1],"loss_changes":[1.0695963E0,0E0,9.5089364E-1,0E0,0E0],"parents":[2147483647,0,0,2,2],"right_children":[2,-1,4,-1,-1],"split_conditions":[2.023E3,-5.0194073E-2,2E0,-3.3039376E-2,5.4113615E-2],"split_indices":[0,0,2,0,0],